{"learner":{"attributes":{"best_iteration":"394","best_score":"0.2082621722721141","scikit_learn":"{\"_estimator_type\": \"classifier\"}"},"feature_names":[],"feature_types":[],"gradient_booster":{"model":{"cats":{"enc":[],"feature_segments":[],"sorted_idx":[]},"gbtree_model_param":{"num_parallel_tree":"1","num_trees":"425"},"iteration_indptr":[0,1,2,3,4,5,6,7,8,9,10,11,12,13,14,15,16,17,18,19,20,21,22,23,24,25,26,27,28,29,30,31,32,33,34,35,36,37,38,39,40,41,42,43,44,45,46,47,48,49,50,51,52,53,54,55,56,57,58,59,60,61,62,63,64,65,66,67,68,69,70,71,72,73,74,75,76,77,78,79,80,81,82,83,84,85,86,87,88,89,90,91,92,93,94,95,96,97,98,99,100,101,102,103,104,105,106,107,108,109,110,111,112,113,114,115,116,117,118,119,120,121,122,123,124,125,126,127,128,129,130,131,132,133,134,135,136,137,138,139,140,141,142,143,144,145,146,147,148,149,150,151,152,153,154,155,156,157,158,159,160,161,162,163,164,165,166,167,168,169,170,171,172,173,174,175,176,177,178,179,180,181,182,183,184,185,186,187,188,189,190,191,192,193,194,195,196,197,198,199,200,201,202,203,204,205,206,207,208,209,210,211,212,213,214,215,216,217,218,219,220,221,222,223,224,225,226,227,228,229,230,231,232,233,234,235,236,237,238,239,240,241,242,243,244,245,246,247,248,249,250,251,252,253,254,255,256,257,258,259,260,261,262,263,264,265,266,267,268,269,270,271,272,273,274,275,276,277,278,279,280,281,282,283,284,285,286,287,288,289,290,291,292,293,294,295,296,297,298,299,300,301,302,303,304,305,306,307,308,309,310,311,312,313,314,315,316,317,318,319,320,321,322,323,324,325,326,327,328,329,330,331,332,333,334,335,336,337,338,339,340,341,342,343,344,345,346,347,348,349,350,351,352,353,354,355,356,357,358,359,360,361,362,363,364,365,366,367,368,369,370,371,372,373,374,375,376,377,378,379,380,381,382,383,384,385,386,387,388,389,390,391,392,393,394,395,396,397,398,399,400,401,402,403,404,405,406,407,408,409,410,411,412,413,414,415,416,417,418,419,420,421,422,423,424,425],"tree_info":[0,0,0,0,0,0,0,0,0,0,0,0,0,0,0,0,0,0,0,0,0,0,0,0,0,0,0,0,0,0,0,0,0,0,0,0,0,0,0,0,0,0,0,0,0,0,0,0,0,0,0,0,0,0,0,0,0,0,0,0,0,0,0,0,0,0,0,0,0,0,0,0,0,0,0,0,0,0,0,0,0,0,0,0,0,0,0,0,0,0,0,0,0,0,0,0,0,0,0,0,0,0,0,0,0,0,0,0,0,0,0,0,0,0,0,0,0,0,0,0,0,0,0,0,0,0,0,0,0,0,0,0,0,0,0,0,0,0,0,0,0,0,0,0,0,0,0,0,0,0,0,0,0,0,0,0,0,0,0,0,0,0,0,0,0,0,0,0,0,0,0,0,0,0,0,0,0,0,0,0,0,0,0,0,0,0,0,0,0,0,0,0,0,0,0,0,0,0,0,0,0,0,0,0,0,0,0,0,0,0,0,0,0,0,0,0,0,0,0,0,0,0,0,0,0,0,0,0,0,0,0,0,0,0,0,0,0,0,0,0,0,0,0,0,0,0,0,0,0,0,0,0,0,0,0,0,0,0,0,0,0,0,0,0,0,0,0,0,0,0,0,0,0,0,0,0,0,0,0,0,0,0,0,0,0,0,0,0,0,0,0,0,0,0,0,0,0,0,0,0,0,0,0,0,0,0,0,0,0,0,0,0,0,0,0,0,0,0,0,0,0,0,0,0,0,0,0,0,0,0,0,0,0,0,0,0,0,0,0,0,0,0,0,0,0,0,0,0,0,0,0,0,0,0,0,0,0,0,0,0,0,0,0,0,0,0,0,0,0,0,0,0,0,0,0,0,0,0,0,0,0,0,0,0,0,0,0,0,0,0,0,0,0,0,0,0,0,0,0,0,0,0,0,0,0,0,0,0,0,0,0,0,0,0,0,0,0,0,0,0,0,0,0,0,0],"trees":[{"base_weights":[-4.287027E-1,-9.007344E-1,2.4523008E0,-1.0239735E0,-3.873701E-1,9.6858454E-1,3.1832426E0,-1.0461861E0,-7.107305E-2,-5.5010283E-1,8.125055E-1,-9.637373E-2,1.3946551E0,2.1036198E0,3.8155363E0,-1.137223E0,-9.5309865E-1,1.7454495E0,-4.594847E-1,-5.9672076E-1,3.517338E-1,3.7163553E-1,1.7805303E0,1.2725654E-1,-1.0266489E0,2.7605398E0,1.0204109E0,8.700663E-1,2.7865984E0,7.767826E-1,3.8953967E0,-5.713843E-2,-2.337434E-2,-3.9594278E-2,-5.0746858E-2,1.9744167E-2,2.2226289E-1,-2.9386887E-2,6.8295516E-2,-4.66577E-2,-2.4257777E-2,7.2469013E-3,9.6011244E-2,1.565493E-3,6.47106E-2,5.346429E-2,1.4510506E-1,-3.53865E-2,1.97793E-2,-5.6978624E-2,-1.1343263E-2,1.6482699E-1,5.2652586E-2,5.810102E-3,7.7797726E-2,-2.0732356E-2,5.9143502E-2,1.7474243E-1,1.0799446E-1,1.3287719E-1,-2.1210229E-2,2.0586662E-1,1.4680965E-1],"categories":[],"categories_nodes":[],"categories_segments":[],"categories_sizes":[],"default_left":[0,0,0,0,0,0,0,0,0,0,0,0,0,0,0,0,0,0,0,0,0,0,0,0,0,0,0,0,0,0,0,0,0,0,0,0,0,0,0,0,0,0,0,0,0,0,0,0,0,0,0,0,0,0,0,0,0,0,0,0,0,0,0],"id":0,"left_children":[1,3,5,7,9,11,13,15,17,19,21,23,25,27,29,31,33,35,37,39,41,43,45,47,49,51,53,55,57,59,61,-1,-1,-1,-1,-1,-1,-1,-1,-1,-1,-1,-1,-1,-1,-1,-1,-1,-1,-1,-1,-1,-1,-1,-1,-1,-1,-1,-1,-1,-1,-1,-1],"loss_changes":[2.0333277E5,8.127336E3,2.2824492E4,2.1927031E3,4.8568467E3,3.1530068E3,9.618016E3,8.5685156E2,1.6666047E3,9.2100146E2,1.2671746E3,4.1340112E2,2.5341426E3,4.387369E3,2.1547734E3,1.8954688E2,4.9826953E2,1.5154813E3,4.563538E2,7.812241E2,3.4909875E2,6.412282E2,7.382429E2,3.5930325E2,3.452188E1,9.728701E2,1.8870168E3,7.472626E2,1.4808379E3,5.18262E2,1.8322812E3,0E0,0E0,0E0,0E0,0E0,0E0,0E0,0E0,0E0,0E0,0E0,0E0,0E0,0E0,0E0,0E0,0E0,0E0,0E0,0E0,0E0,0E0,0E0,0E0,0E0,0E0,0E0,0E0,0E0,0E0,0E0,0E0],"parents":[2147483647,0,0,1,1,2,2,3,3,4,4,5,5,6,6,7,7,8,8,9,9,10,10,11,11,12,12,13,13,14,14,15,15,16,16,17,17,18,18,19,19,20,20,21,21,22,22,23,23,24,24,25,25,26,26,27,27,28,28,29,29,30,30],"right_children":[2,4,6,8,10,12,14,16,18,20,22,24,26,28,30,32,34,36,38,40,42,44,46,48,50,52,54,56,58,60,62,-1,-1,-1,-1,-1,-1,-1,-1,-1,-1,-1,-1,-1,-1,-1,-1,-1,-1,-1,-1,-1,-1,-1,-1,-1,-1,-1,-1,-1,-1,-1,-1],"split_conditions":[1.7649299E0,8.77048E-1,-2.6165053E-1,1.6888927E0,1.4476609E0,-1.7221728E-2,9.295562E-1,-3.7924033E-1,-6.1935544E-1,3.7392008E0,1.6979927E0,3.4838214E0,-6.019204E-1,1.8705372E0,-1.7419615E-1,1.5921471E0,-2.5849134E-1,1.7046352E-1,2.042668E0,-8.6835724E-1,1.2306851E0,2.131141E0,1.2830954E0,2.85098E-1,4.4896486E-1,7.3758666E-3,1.8616713E0,-6.9044805E-1,-4.8975518E-1,-5.4222745E-1,2.1133323E0,-5.713843E-2,-2.337434E-2,-3.9594278E-2,-5.0746858E-2,1.9744167E-2,2.2226289E-1,-2.9386887E-2,6.8295516E-2,-4.66577E-2,-2.4257777E-2,7.2469013E-3,9.6011244E-2,1.565493E-3,6.47106E-2,5.346429E-2,1.4510506E-1,-3.53865E-2,1.97793E-2,-5.6978624E-2,-1.1343263E-2,1.6482699E-1,5.2652586E-2,5.810102E-3,7.7797726E-2,-2.0732356E-2,5.9143502E-2,1.7474243E-1,1.0799446E-1,1.3287719E-1,-2.1210229E-2,2.0586662E-1,1.4680965E-1],"split_indices":[81,71,74,81,81,93,79,71,90,74,81,80,66,81,78,108,104,89,78,1,44,74,79,78,79,94,81,66,44,0,78,0,0,0,0,0,0,0,0,0,0,0,0,0,0,0,0,0,0,0,0,0,0,0,0,0,0,0,0,0,0,0,0],"split_type":[0,0,0,0,0,0,0,0,0,0,0,0,0,0,0,0,0,0,0,0,0,0,0,0,0,0,0,0,0,0,0,0,0,0,0,0,0,0,0,0,0,0,0,0,0,0,0,0,0,0,0,0,0,0,0,0,0,0,0,0,0,0,0],"sum_hessian":[1.49515E5,1.2846725E5,2.1047748E4,1.0359667E5,2.4870578E4,6.94752E3,1.41002295E4,1.012367E5,2.3599702E3,2.1900828E4,2.9697507E3,1.9855172E3,4.9620024E3,5.2094956E3,8.890733E3,5.1176375E4,5.0060324E4,4.1510663E2,1.9448635E3,2.0824691E4,1.0761364E3,2.0414103E3,9.283405E2,1.6014141E3,3.8410315E2,1.0657916E3,3.896211E3,1.8572749E3,3.3522207E3,2.2794527E2,8.662788E3,5.07554E4,4.2097516E2,1.3882477E4,3.6177848E4,2.7745654E2,1.3765009E2,1.8178207E3,1.2704288E2,5.184146E3,1.5640546E4,9.517468E2,1.24389496E2,1.4920482E3,5.4936194E2,5.692829E2,3.590576E2,3.8907004E2,1.212344E3,3.3620816E2,4.7894985E1,8.104511E2,2.5534052E2,1.4497231E3,2.4464878E3,3.6360214E2,1.4936727E3,1.5715831E3,1.7806376E3,8.835984E1,1.3958543E2,7.032379E3,1.630409E3],"tree_param":{"num_deleted":"0","num_feature":"225","num_nodes":"63","size_leaf_vector":"1"}},{"base_weights":[-4.1164923E-1,-9.1931754E-1,2.3152854E0,-1.013123E0,-5.469652E-1,1.5814576E0,3.1824875E0,-1.0345577E0,-3.4749386E-1,-6.0424507E-1,5.7753426E-1,1.0186286E0,2.3784542E0,1.8036871E0,3.3898478E0,-1.1047245E0,-9.274993E-1,-8.7888384E-1,-6.745082E-2,-5.0584683E-3,-6.607373E-1,1.8540683E-1,2.4427986E0,1.2435329E0,-3.3367217E-2,1.3053626E0,2.7320054E0,2.22023E0,7.924362E-1,1.9603939E0,3.541589E0,-5.681765E-2,-5.0789606E-2,-4.6576433E-2,1.4107107E-1,-5.240967E-3,-4.7896326E-2,-3.3444133E-2,1.7631749E-2,-1.863796E-2,1.3815284E-1,-1.9877024E-2,-3.9404795E-2,1.7766182E-1,-1.3114492E-3,6.5829076E-2,1.9036993E-1,1.9953262E-2,7.474071E-2,-7.2122714E-3,1.21007375E-1,1.2915583E-1,4.3315433E-2,1.16329506E-1,1.7168294E-1,9.232577E-2,1.8088798E-1,9.427541E-2,6.423448E-3,8.374466E-2,2.3424764E-1,1.850709E-1,1.3150762E-1],"categories":[],"categories_nodes":[],"categories_segments":[],"categories_sizes":[],"default_left":[0,0,0,0,0,0,0,0,0,0,0,0,0,0,0,0,0,0,0,0,0,0,0,0,0,0,0,0,0,0,0,0,0,0,0,0,0,0,0,0,0,0,0,0,0,0,0,0,0,0,0,0,0,0,0,0,0,0,0,0,0,0,0],"id":1,"left_children":[1,3,5,7,9,11,13,15,17,19,21,23,25,27,29,31,33,35,37,39,41,43,45,47,49,51,53,55,57,59,61,-1,-1,-1,-1,-1,-1,-1,-1,-1,-1,-1,-1,-1,-1,-1,-1,-1,-1,-1,-1,-1,-1,-1,-1,-1,-1,-1,-1,-1,-1,-1,-1],"loss_changes":[2.0421834E5,4.343297E3,1.472875E4,1.4169297E3,1.6124272E3,5.623869E3,3.0276406E3,7.2189844E2,4.6133942E2,8.0613184E2,8.871961E2,1.7397563E3,1.9657227E3,5.834614E2,1.9935078E3,1.6235938E2,5.7827734E2,6.536542E1,5.1351654E2,2.0905474E3,7.2920605E2,7.156016E2,3.1884338E2,1.2848916E3,3.5293765E2,7.204795E2,1.1023691E3,5.069497E2,2.950512E2,6.823518E2,1.2046562E3,0E0,0E0,0E0,0E0,0E0,0E0,0E0,0E0,0E0,0E0,0E0,0E0,0E0,0E0,0E0,0E0,0E0,0E0,0E0,0E0,0E0,0E0,0E0,0E0,0E0,0E0,0E0,0E0,0E0,0E0,0E0,0E0],"parents":[2147483647,0,0,1,1,2,2,3,3,4,4,5,5,6,6,7,7,8,8,9,9,10,10,11,11,12,12,13,13,14,14,15,15,16,16,17,17,18,18,19,19,20,20,21,21,22,22,23,23,24,24,25,25,26,26,27,27,28,28,29,29,30,30],"right_children":[2,4,6,8,10,12,14,16,18,20,22,24,26,28,30,32,34,36,38,40,42,44,46,48,50,52,54,56,58,60,62,-1,-1,-1,-1,-1,-1,-1,-1,-1,-1,-1,-1,-1,-1,-1,-1,-1,-1,-1,-1,-1,-1,-1,-1,-1,-1,-1,-1,-1,-1,-1,-1],"split_conditions":[7.4977183E-1,5.193974E-1,1.1658018E0,3.9338472E-1,4.9820444E-1,1.9271426E0,1.1816292E0,-5.8854863E-2,-5.1446056E-1,-2.917907E0,1.7649299E0,3.3295268E-1,-1.7014726E-1,2.9497704E-1,-3.62948E-1,-2.2789797E-1,4.269354E0,-3.6930427E-1,1.6801369E0,4.0921438E-1,-1.0381976E0,-6.765389E-1,1.433181E0,-1.7298866E-2,4.9777336E0,-2.6111943E-1,6.640981E-2,3.0002835E0,-3.3119455E-1,1.9921904E0,2.1133323E0,-5.681765E-2,-5.0789606E-2,-4.6576433E-2,1.4107107E-1,-5.240967E-3,-4.7896326E-2,-3.3444133E-2,1.7631749E-2,-1.863796E-2,1.3815284E-1,-1.9877024E-2,-3.9404795E-2,1.7766182E-1,-1.3114492E-3,6.5829076E-2,1.9036993E-1,1.9953262E-2,7.474071E-2,-7.2122714E-3,1.21007375E-1,1.2915583E-1,4.3315433E-2,1.16329506E-1,1.7168294E-1,9.232577E-2,1.8088798E-1,9.427541E-2,6.423448E-3,8.374466E-2,2.3424764E-1,1.850709E-1,1.3150762E-1],"split_indices":[76,73,79,76,76,81,76,94,74,97,81,90,74,19,74,74,47,194,81,158,17,91,74,93,77,140,94,77,54,18,78,0,0,0,0,0,0,0,0,0,0,0,0,0,0,0,0,0,0,0,0,0,0,0,0,0,0,0,0,0,0,0,0],"split_type":[0,0,0,0,0,0,0,0,0,0,0,0,0,0,0,0,0,0,0,0,0,0,0,0,0,0,0,0,0,0,0,0,0,0,0,0,0,0,0,0,0,0,0,0,0,0,0,0,0,0,0,0,0,0,0,0,0,0,0,0,0,0,0],"sum_hessian":[1.4751375E5,1.2436214E5,2.3151604E4,9.933521E4,2.5026924E4,1.2541658E4,1.0609946E4,9.623567E4,3.099546E3,2.381433E4,1.2125946E3,7.3520264E3,5.189632E3,1.3883162E3,9.221631E3,5.812853E4,3.8107137E4,1.068982E3,2.0305638E3,2.0518977E3,2.1762432E4,1.0028654E3,2.0972916E2,6.0569414E3,1.2950846E3,1.2872592E3,3.9023723E3,9.8244354E2,4.0587262E2,8.8630035E2,8.33533E3,4.287016E4,1.525837E4,3.8066973E4,4.0162674E1,9.925953E1,9.6972253E2,8.3479926E2,1.1957645E3,1.8120593E3,2.3983836E2,7.0979907E3,1.4664441E4,5.836085E1,9.445046E2,1.1597704E2,9.375212E1,1.3895941E3,4.6673477E3,1.2399888E3,5.509585E1,3.2795294E2,9.593063E2,2.4760352E3,1.4263372E3,7.769893E2,2.0545421E2,1.5267992E2,2.531927E2,8.036974E2,8.260299E1,7.0891245E3,1.2462054E3],"tree_param":{"num_deleted":"0","num_feature":"225","num_nodes":"63","size_leaf_vector":"1"}},{"base_weights":[-4.0184444E-1,-9.0449846E-1,2.0468588E0,-5.9952295E-1,-1.0155189E0,1.4256092E0,2.7533195E0,-8.124469E-1,-4.234773E-1,-1.0361878E0,-2.2916883E-1,1.6249214E0,1.3954587E-1,1.6980982E0,2.9431067E0,-4.5288756E-1,-8.8765395E-1,3.9795688E-1,-5.070957E-1,-1.0867134E0,-9.212584E-1,-8.21951E-1,1.6976881E-1,9.142987E-1,1.8568832E0,-2.9526666E-1,7.663627E-1,8.5406864E-1,2.035596E0,1.8401263E0,3.0610254E0,7.966193E-2,-3.0365465E-2,-4.5092445E-2,3.1578388E-2,-2.1141816E-3,1.4714685E-1,-2.8781751E-2,1.627469E-2,-5.4635506E-2,-1.6254103E-2,-4.6709377E-2,-7.949282E-3,2.7351743E-2,-4.3903444E-2,-2.0718887E-3,1.23225786E-1,1.1714933E-1,3.792265E-2,1.0920348E-1,6.48041E-2,-2.3578402E-2,1.0981822E-1,6.2156837E-3,6.585097E-2,2.0862048E-2,1.6313358E-1,1.0718139E-1,-1.9078186E-2,7.659299E-2,1.6075514E-1,1.5994602E-1,1.1376037E-1],"categories":[],"categories_nodes":[],"categories_segments":[],"categories_sizes":[],"default_left":[0,0,0,0,0,0,0,0,0,0,0,0,0,0,0,0,0,0,0,0,0,0,0,0,0,0,0,0,0,0,0,0,0,0,0,0,0,0,0,0,0,0,0,0,0,0,0,0,0,0,0,0,0,0,0,0,0,0,0,0,0,0,0],"id":2,"left_children":[1,3,5,7,9,11,13,15,17,19,21,23,25,27,29,31,33,35,37,39,41,43,45,47,49,51,53,55,57,59,61,-1,-1,-1,-1,-1,-1,-1,-1,-1,-1,-1,-1,-1,-1,-1,-1,-1,-1,-1,-1,-1,-1,-1,-1,-1,-1,-1,-1,-1,-1,-1,-1],"loss_changes":[1.7884284E5,4.0811406E3,1.0857047E4,1.2057334E3,1.4361797E3,3.3754746E3,2.3137188E3,3.933584E2,1.2101323E3,4.990547E2,5.357194E2,1.8778184E3,4.821482E2,5.0169434E2,1.2705078E3,7.974899E2,2.6024805E2,1.8241782E3,9.125508E2,2.7282812E2,2.590918E2,7.048425E1,6.566076E2,6.234292E2,1.5742871E3,4.5996027E2,2.5597717E2,5.315993E2,3.3030322E2,3.9781055E2,9.530703E2,0E0,0E0,0E0,0E0,0E0,0E0,0E0,0E0,0E0,0E0,0E0,0E0,0E0,0E0,0E0,0E0,0E0,0E0,0E0,0E0,0E0,0E0,0E0,0E0,0E0,0E0,0E0,0E0,0E0,0E0,0E0,0E0],"parents":[2147483647,0,0,1,1,2,2,3,3,4,4,5,5,6,6,7,7,8,8,9,9,10,10,11,11,12,12,13,13,14,14,15,15,16,16,17,17,18,18,19,19,20,20,21,21,22,22,23,23,24,24,25,25,26,26,27,27,28,28,29,29,30,30],"right_children":[2,4,6,8,10,12,14,16,18,20,22,24,26,28,30,32,34,36,38,40,42,44,46,48,50,52,54,56,58,60,62,-1,-1,-1,-1,-1,-1,-1,-1,-1,-1,-1,-1,-1,-1,-1,-1,-1,-1,-1,-1,-1,-1,-1,-1,-1,-1,-1,-1,-1,-1,-1,-1],"split_conditions":[7.4977183E-1,-7.044196E-1,1.1658018E0,4.485721E-1,4.26927E-1,2.3561615E-1,1.286449E0,-2.943321E0,-2.917907E0,-1.7014726E-1,-4.7091624E-1,1.286449E0,-6.772653E-1,8.965195E-1,-3.2495022E-1,-3.647496E-1,4.4239225E0,4.0921438E-1,4.26927E-1,1.5921471E0,1.742302E0,-4.3851194E-1,3.0002835E0,-1.433367E-1,-3.9165607E-3,3.1455314E0,7.090337E-2,3.9092727E0,1.1687714E0,9.4182616E-1,2.1133323E0,7.966193E-2,-3.0365465E-2,-4.5092445E-2,3.1578388E-2,-2.1141816E-3,1.4714685E-1,-2.8781751E-2,1.627469E-2,-5.4635506E-2,-1.6254103E-2,-4.6709377E-2,-7.949282E-3,2.7351743E-2,-4.3903444E-2,-2.0718887E-3,1.23225786E-1,1.1714933E-1,3.792265E-2,1.0920348E-1,6.48041E-2,-2.3578402E-2,1.0981822E-1,6.2156837E-3,6.585097E-2,2.0862048E-2,1.6313358E-1,1.0718139E-1,-1.9078186E-2,7.659299E-2,1.6075514E-1,1.5994602E-1,1.1376037E-1],"split_indices":[76,17,79,74,76,90,76,97,97,74,74,76,74,76,74,143,78,158,76,108,100,208,77,78,44,18,57,77,66,18,78,0,0,0,0,0,0,0,0,0,0,0,0,0,0,0,0,0,0,0,0,0,0,0,0,0,0,0,0,0,0,0,0],"split_type":[0,0,0,0,0,0,0,0,0,0,0,0,0,0,0,0,0,0,0,0,0,0,0,0,0,0,0,0,0,0,0,0,0,0,0,0,0,0,0,0,0,0,0,0,0,0,0,0,0,0,0,0,0,0,0,0,0,0,0,0,0,0,0],"sum_hessian":[1.4529772E5,1.2055217E5,2.4745545E4,3.2174516E4,8.837766E4,1.3168451E4,1.1577093E4,1.4560387E4,1.7614129E4,8.611388E4,2.2637703E3,1.1401241E4,1.7672104E3,1.7663114E3,9.810781E3,2.5199094E3,1.2040477E4,1.6270334E3,1.5987097E4,5.9811035E4,2.630285E4,9.10217E2,1.3535533E3,2.806962E3,8.594279E3,1.0437247E3,7.234857E2,5.0554712E2,1.2607643E3,9.4916364E2,8.861617E3,1.761788E2,2.3437307E3,1.192942E4,1.110566E2,1.3879277E3,2.3910574E2,1.4771411E4,1.2156847E3,5.9343367E4,4.6767084E2,2.5863938E4,4.3891104E2,3.5498177E1,8.747188E2,1.2403724E3,1.1318089E2,2.7469647E2,2.5322654E3,5.4258174E3,3.1684622E3,9.7551086E2,6.821388E1,3.345899E2,3.8889584E2,4.2892914E2,7.661798E1,1.2069349E3,5.3829315E1,7.770622E2,1.7210146E2,7.536112E3,1.3255052E3],"tree_param":{"num_deleted":"0","num_feature":"225","num_nodes":"63","size_leaf_vector":"1"}},{"base_weights":[-3.8477752E-1,-8.8275313E-1,1.8400743E0,-9.8574126E-1,-4.8484236E-1,1.3069655E0,2.4703636E0,-1.0070776E0,-2.0612721E-1,-8.7562406E-1,-3.6936197E-1,1.4687996E0,5.4715373E-2,1.598745E0,2.6169891E0,-1.0948969E0,-9.212304E-1,-7.8214544E-1,1.1132586E-1,5.995817E-2,-9.1789377E-1,7.635262E-2,-4.9503073E-1,5.152383E-1,1.6358259E0,-3.7232944E-1,6.5285665E-1,3.5333815E-1,1.783712E0,-2.5734058E-1,2.6527677E0,-5.5122036E-2,-3.3373993E-2,-4.7861483E-2,-3.451637E-2,5.7908844E-2,-4.2134132E-2,-8.192731E-4,1.2158322E-1,1.4495468E-1,-3.8310032E-2,-4.6750024E-2,4.741146E-2,-4.0823817E-2,1.2830684E-2,6.069274E-3,-2.9656157E-2,3.4376603E-2,-4.494461E-2,3.771901E-2,9.190007E-2,3.4270056E-2,-3.519504E-2,-1.3202059E-2,6.2375944E-2,-3.4979366E-2,1.1249634E-1,9.748794E-2,2.3290979E-2,4.930453E-2,-4.761548E-2,1.0746558E-1,1.3763711E-1],"categories":[],"categories_nodes":[],"categories_segments":[],"categories_sizes":[],"default_left":[0,0,0,0,0,0,0,0,0,0,0,0,0,0,0,0,0,0,0,0,0,0,0,0,0,0,0,0,0,0,0,0,0,0,0,0,0,0,0,0,0,0,0,0,0,0,0,0,0,0,0,0,0,0,0,0,0,0,0,0,0,0,0],"id":3,"left_children":[1,3,5,7,9,11,13,15,17,19,21,23,25,27,29,31,33,35,37,39,41,43,45,47,49,51,53,55,57,59,61,-1,-1,-1,-1,-1,-1,-1,-1,-1,-1,-1,-1,-1,-1,-1,-1,-1,-1,-1,-1,-1,-1,-1,-1,-1,-1,-1,-1,-1,-1,-1,-1],"loss_changes":[1.5857569E5,4.792211E3,8.792508E3,1.5451641E3,1.0849058E3,2.8743652E3,1.5286641E3,6.807422E2,4.5286847E2,2.1695752E2,1.0398682E3,1.9996699E3,4.151424E2,3.9781885E2,1.0563594E3,1.433789E2,3.794961E2,1.0433038E2,4.7335162E2,5.605328E2,1.6840918E2,6.574744E2,8.757024E2,4.5712146E2,1.9032676E3,3.3307327E2,3.694435E2,4.5073026E2,3.2860107E2,1.1078847E2,5.0441406E2,0E0,0E0,0E0,0E0,0E0,0E0,0E0,0E0,0E0,0E0,0E0,0E0,0E0,0E0,0E0,0E0,0E0,0E0,0E0,0E0,0E0,0E0,0E0,0E0,0E0,0E0,0E0,0E0,0E0,0E0,0E0,0E0],"parents":[2147483647,0,0,1,1,2,2,3,3,4,4,5,5,6,6,7,7,8,8,9,9,10,10,11,11,12,12,13,13,14,14,15,15,16,16,17,17,18,18,19,19,20,20,21,21,22,22,23,23,24,24,25,25,26,26,27,27,28,28,29,29,30,30],"right_children":[2,4,6,8,10,12,14,16,18,20,22,24,26,28,30,32,34,36,38,40,42,44,46,48,50,52,54,56,58,60,62,-1,-1,-1,-1,-1,-1,-1,-1,-1,-1,-1,-1,-1,-1,-1,-1,-1,-1,-1,-1,-1,-1,-1,-1,-1,-1,-1,-1,-1,-1,-1,-1],"split_conditions":[7.4977183E-1,7.993447E-1,1.2244805E0,4.26927E-1,-8.6835724E-1,3.5081232E-1,-4.6411224E-2,-4.1765514E-1,-5.1994306E-1,-1.9756755E0,-1.1446191E0,1.0810022E0,-6.772653E-1,-6.699381E-1,8.210493E-1,2.19361E0,-1.7739028E-2,-5.453439E-1,2.3906925E0,-2.5175592E-1,2.1055686E0,-2.1456979E-1,-2.917907E0,1.8040261E0,-1.7304571E-2,7.7331257E-1,1.8826441E-1,-9.433983E-3,1.2235711E0,-2.423094E-1,1.1397794E0,-5.5122036E-2,-3.3373993E-2,-4.7861483E-2,-3.451637E-2,5.7908844E-2,-4.2134132E-2,-8.192731E-4,1.2158322E-1,1.4495468E-1,-3.8310032E-2,-4.6750024E-2,4.741146E-2,-4.0823817E-2,1.2830684E-2,6.069274E-3,-2.9656157E-2,3.4376603E-2,-4.494461E-2,3.771901E-2,9.190007E-2,3.4270056E-2,-3.519504E-2,-1.3202059E-2,6.2375944E-2,-3.4979366E-2,1.1249634E-1,9.748794E-2,2.3290979E-2,4.930453E-2,-4.761548E-2,1.0746558E-1,1.3763711E-1],"split_indices":[76,71,79,76,1,90,71,71,74,97,17,76,74,74,76,78,92,194,78,190,111,76,97,80,93,90,77,93,66,77,77,0,0,0,0,0,0,0,0,0,0,0,0,0,0,0,0,0,0,0,0,0,0,0,0,0,0,0,0,0,0,0,0],"split_type":[0,0,0,0,0,0,0,0,0,0,0,0,0,0,0,0,0,0,0,0,0,0,0,0,0,0,0,0,0,0,0,0,0,0,0,0,0,0,0,0,0,0,0,0,0,0,0,0,0,0,0,0,0,0,0,0,0,0,0,0,0,0,0],"sum_hessian":[1.4312647E5,1.1695069E5,2.6175787E4,9.290368E4,2.4047006E4,1.418281E4,1.1992978E4,9.0428555E4,2.4751265E3,5.4837173E3,1.856329E4,1.2559513E4,1.6232971E3,1.7286852E3,1.0264292E4,4.469505E4,4.57335E4,8.7889984E2,1.5962266E3,2.3702739E2,5.24669E3,4.0828542E3,1.4480436E4,1.8726355E3,1.0686877E4,9.4732733E2,6.759698E2,2.2391924E2,1.504766E3,1.2611901E2,1.0138173E4,4.3918324E4,7.767259E2,3.9562332E4,6.1711704E3,2.6043036E1,8.528568E2,1.5138948E3,8.233176E1,5.2860508E1,1.8416687E2,5.199525E3,4.716496E1,6.852579E2,3.3975964E3,1.9879357E3,1.24925E4,1.6697158E3,2.0291972E2,1.9947767E3,8.692101E3,2.2583484E2,7.214925E2,2.6615173E2,4.0981805E2,1.4438979E2,7.952946E1,1.335963E3,1.6880296E2,4.50669E1,8.105212E1,1.6833839E3,8.454789E3],"tree_param":{"num_deleted":"0","num_feature":"225","num_nodes":"63","size_leaf_vector":"1"}},{"base_weights":[-3.734451E-1,-8.75476E-1,1.6435767E0,-9.860682E-1,-5.2297086E-1,1.1655446E0,2.1630394E0,-1.001878E0,-3.0429435E-1,1.23067304E-1,-5.9876406E-1,7.438806E-1,1.7560344E0,1.3301666E0,2.3237946E0,-1.0826532E0,-9.168243E-1,-7.724175E-1,-2.2829963E-2,-4.3058145E-1,1.5452479E0,-6.240448E-1,7.68269E-1,4.0338644E-1,1.1569242E0,9.2915136E-1,2.0252807E0,3.6241186E-1,1.570262E0,1.393574E0,2.4172342E0,-5.44932E-2,-1.2285379E-2,-4.798153E-2,-3.5013754E-2,7.330241E-2,-4.327095E-2,-1.3331234E-2,4.7017727E-2,-2.0160757E-3,-4.509711E-2,2.7010977E-2,1.487534E-1,-1.9149698E-2,-3.8032513E-2,-3.6554865E-3,9.9603795E-2,-4.286213E-3,3.204339E-2,-6.368781E-3,6.629538E-2,3.4990923E-3,6.883488E-2,1.115734E-1,6.208116E-2,8.370005E-2,-3.3714422E-3,9.2639364E-2,4.177779E-2,9.200427E-2,3.3024818E-2,1.2635146E-1,8.854379E-2],"categories":[],"categories_nodes":[],"categories_segments":[],"categories_sizes":[],"default_left":[0,0,0,0,0,0,0,0,0,0,0,0,0,0,0,0,0,0,0,0,0,0,0,0,0,0,0,0,0,0,0,0,0,0,0,0,0,0,0,0,0,0,0,0,0,0,0,0,0,0,0,0,0,0,0,0,0,0,0,0,0,0,0],"id":4,"left_children":[1,3,5,7,9,11,13,15,17,19,21,23,25,27,29,31,33,35,37,39,41,43,45,47,49,51,53,55,57,59,61,-1,-1,-1,-1,-1,-1,-1,-1,-1,-1,-1,-1,-1,-1,-1,-1,-1,-1,-1,-1,-1,-1,-1,-1,-1,-1,-1,-1,-1,-1,-1,-1],"loss_changes":[1.426143E5,4.395742E3,6.9673984E3,9.249219E2,1.3188418E3,3.638709E3,1.7977148E3,5.753672E2,2.564995E2,2.2280273E3,8.3353613E2,1.1992651E3,1.3538828E3,5.0558374E2,9.764531E2,2.593828E2,3.781875E2,1.5344827E2,2.8599152E2,3.7466147E2,1.1377654E3,7.790625E2,4.512813E2,5.4336597E2,8.3660547E2,5.7578455E2,7.393633E2,2.4496883E2,3.606792E2,3.3636877E2,7.223906E2,0E0,0E0,0E0,0E0,0E0,0E0,0E0,0E0,0E0,0E0,0E0,0E0,0E0,0E0,0E0,0E0,0E0,0E0,0E0,0E0,0E0,0E0,0E0,0E0,0E0,0E0,0E0,0E0,0E0,0E0,0E0,0E0],"parents":[2147483647,0,0,1,1,2,2,3,3,4,4,5,5,6,6,7,7,8,8,9,9,10,10,11,11,12,12,13,13,14,14,15,15,16,16,17,17,18,18,19,19,20,20,21,21,22,22,23,23,24,24,25,25,26,26,27,27,28,28,29,29,30,30],"right_children":[2,4,6,8,10,12,14,16,18,20,22,24,26,28,30,32,34,36,38,40,42,44,46,48,50,52,54,56,58,60,62,-1,-1,-1,-1,-1,-1,-1,-1,-1,-1,-1,-1,-1,-1,-1,-1,-1,-1,-1,-1,-1,-1,-1,-1,-1,-1,-1,-1,-1,-1,-1,-1],"split_conditions":[6.952656E-1,6.625157E-1,1.1658018E0,4.26927E-1,-2.917907E0,1.9271426E0,1.286449E0,-4.1765514E-1,-4.1765514E-1,2.025807E-1,1.7649299E0,9.89963E-2,-1.4472273E-1,8.210493E-1,-3.2495022E-1,1.5921471E0,-3.4329478E-2,-6.467031E-1,6.407593E-1,2.812281E-1,1.6531754E-1,-1.0483073E0,9.5243776E-1,-1.1608659E-1,-1.1781591E-1,4.4896486E-1,1.4970627E-1,-3.6626107E-1,2.9497704E-1,1.0513922E0,2.1133323E0,-5.44932E-2,-1.2285379E-2,-4.798153E-2,-3.5013754E-2,7.330241E-2,-4.327095E-2,-1.3331234E-2,4.7017727E-2,-2.0160757E-3,-4.509711E-2,2.7010977E-2,1.487534E-1,-1.9149698E-2,-3.8032513E-2,-3.6554865E-3,9.9603795E-2,-4.286213E-3,3.204339E-2,-6.368781E-3,6.629538E-2,3.4990923E-3,6.883488E-2,1.115734E-1,6.208116E-2,8.370005E-2,-3.3714422E-3,9.2639364E-2,4.177779E-2,9.200427E-2,3.3024818E-2,1.2635146E-1,8.854379E-2],"split_indices":[76,71,79,76,97,81,76,71,71,159,81,45,74,76,74,108,92,66,76,19,121,17,74,92,92,79,154,112,19,78,78,0,0,0,0,0,0,0,0,0,0,0,0,0,0,0,0,0,0,0,0,0,0,0,0,0,0,0,0,0,0,0,0],"split_type":[0,0,0,0,0,0,0,0,0,0,0,0,0,0,0,0,0,0,0,0,0,0,0,0,0,0,0,0,0,0,0,0,0,0,0,0,0,0,0,0,0,0,0,0,0,0,0,0,0,0,0,0,0,0,0,0,0,0,0,0,0,0,0],"sum_hessian":[1.4083628E5,1.1276898E5,2.8067305E4,8.5837266E4,2.6931705E4,1.4618221E4,1.3449084E4,8.3891414E4,1.9458514E3,2.8277966E3,2.410391E4,8.529578E3,6.0886426E3,2.1773757E3,1.1271709E4,4.3021957E4,4.086946E4,7.299974E2,1.215854E3,2.0359192E3,7.9187726E2,2.366678E4,4.3712976E2,4.6764795E3,3.8530989E3,1.4966694E3,4.5919736E3,4.3331552E2,1.7440602E3,1.030334E3,1.0241375E4,4.2654156E4,3.678001E2,3.412114E4,6.748318E3,2.8530441E1,7.01467E2,9.708438E2,2.4501021E2,1.1143698E3,9.215495E2,4.6582452E2,3.2605276E2,8.562099E3,1.5104681E4,2.595956E2,1.7753416E2,1.5286823E3,3.147797E3,4.4805502E2,3.4050437E3,5.130008E2,9.836686E2,3.6339905E3,9.57983E2,1.0624171E2,3.270738E2,1.2585667E3,4.854935E2,6.3938184E2,3.9095218E2,8.751823E3,1.4895516E3],"tree_param":{"num_deleted":"0","num_feature":"225","num_nodes":"63","size_leaf_vector":"1"}},{"base_weights":[-3.6268657E-1,-8.440398E-1,1.3860929E0,-9.663776E-1,-3.8719735E-1,4.1613173E-1,1.7037988E0,-1.05435E0,-8.4334797E-1,-4.8458105E-1,2.3387627E-1,-3.6881074E-1,7.331183E-1,7.685488E-1,2.0007226E0,-1.0819945E0,-8.920619E-1,-8.56944E-1,3.7924024E-1,-8.273774E-1,-3.6703566E-1,-1.177119E-1,7.1237516E-1,-4.4685525E-1,2.4621427E0,4.9933333E-2,9.403343E-1,-4.120302E-2,9.6805555E-1,1.4161661E0,2.118703E0,-5.422003E-2,9.557923E-3,-2.1360038E-2,-4.8021775E-2,-4.3116447E-2,6.3726276E-2,5.1016923E-2,-4.478717E-2,-4.2350505E-2,1.3275439E-1,-5.1563056E-3,-3.3042125E-2,-8.452839E-3,1.7122243E-1,5.9844535E-2,-7.183404E-3,-5.4791696E-2,-1.1178006E-2,6.1650682E-2,1.684462E-1,3.590927E-2,-1.6035458E-2,2.5710523E-2,6.590775E-2,2.5041748E-2,-4.5633916E-2,5.674621E-2,-2.2598407E-3,1.0436603E-1,5.1651366E-2,1.1178404E-1,8.6614184E-2],"categories":[],"categories_nodes":[],"categories_segments":[],"categories_sizes":[],"default_left":[0,0,0,0,0,0,0,0,0,0,0,0,0,0,0,0,0,0,0,0,0,0,0,0,0,0,0,0,0,0,0,0,0,0,0,0,0,0,0,0,0,0,0,0,0,0,0,0,0,0,0,0,0,0,0,0,0,0,0,0,0,0,0],"id":5,"left_children":[1,3,5,7,9,11,13,15,17,19,21,23,25,27,29,31,33,35,37,39,41,43,45,47,49,51,53,55,57,59,61,-1,-1,-1,-1,-1,-1,-1,-1,-1,-1,-1,-1,-1,-1,-1,-1,-1,-1,-1,-1,-1,-1,-1,-1,-1,-1,-1,-1,-1,-1,-1,-1],"loss_changes":[1.1652219E5,6.0661406E3,9.20641E3,9.257656E2,1.3869329E3,1.8347898E3,6.2481914E3,2.2298438E2,5.937617E2,7.983921E2,5.2306433E2,4.69851E2,7.435149E2,8.76438E2,1.1750547E3,1.3083594E2,2.3069531E2,4.0636328E2,3.224326E2,3.482395E2,1.1445626E3,3.266414E2,5.46346E2,2.990807E2,5.9457703E1,3.032451E2,6.4814185E2,5.074711E2,7.359829E2,7.3626416E2,6.384922E2,0E0,0E0,0E0,0E0,0E0,0E0,0E0,0E0,0E0,0E0,0E0,0E0,0E0,0E0,0E0,0E0,0E0,0E0,0E0,0E0,0E0,0E0,0E0,0E0,0E0,0E0,0E0,0E0,0E0,0E0,0E0,0E0],"parents":[2147483647,0,0,1,1,2,2,3,3,4,4,5,5,6,6,7,7,8,8,9,9,10,10,11,11,12,12,13,13,14,14,15,15,16,16,17,17,18,18,19,19,20,20,21,21,22,22,23,23,24,24,25,25,26,26,27,27,28,28,29,29,30,30],"right_children":[2,4,6,8,10,12,14,16,18,20,22,24,26,28,30,32,34,36,38,40,42,44,46,48,50,52,54,56,58,60,62,-1,-1,-1,-1,-1,-1,-1,-1,-1,-1,-1,-1,-1,-1,-1,-1,-1,-1,-1,-1,-1,-1,-1,-1,-1,-1,-1,-1,-1,-1,-1,-1],"split_conditions":[1.7181377E0,8.570567E-1,1.8161176E-2,-2.1141991E-1,1.3375912E0,-2.8803077E-1,-2.6961264E-1,-1.0585381E-2,1.6888927E0,-8.6382836E-1,1.6691917E0,2.8964968E0,-6.8070483E-1,-7.7660847E-1,5.6785303E-1,7.479393E-1,-3.117298E-1,4.4861526E0,2.3373917E-3,2.3454928E0,-7.267333E-1,3.4786615E0,5.8235675E-1,1.7761946E0,3.1156552E-1,4.296481E-1,1.8334508E0,-6.6020987E-3,1.0511227E0,-7.152493E-1,1.8987846E0,-5.422003E-2,9.557923E-3,-2.1360038E-2,-4.8021775E-2,-4.3116447E-2,6.3726276E-2,5.1016923E-2,-4.478717E-2,-4.2350505E-2,1.3275439E-1,-5.1563056E-3,-3.3042125E-2,-8.452839E-3,1.7122243E-1,5.9844535E-2,-7.183404E-3,-5.4791696E-2,-1.1178006E-2,6.1650682E-2,1.684462E-1,3.590927E-2,-1.6035458E-2,2.5710523E-2,6.590775E-2,2.5041748E-2,-4.5633916E-2,5.674621E-2,-2.2598407E-3,1.0436603E-1,5.1651366E-2,1.1178404E-1,8.6614184E-2],"split_indices":[81,71,77,71,81,71,74,94,81,1,74,66,1,74,79,73,194,47,94,47,81,78,80,81,78,80,81,66,68,89,78,0,0,0,0,0,0,0,0,0,0,0,0,0,0,0,0,0,0,0,0,0,0,0,0,0,0,0,0,0,0,0,0],"split_type":[0,0,0,0,0,0,0,0,0,0,0,0,0,0,0,0,0,0,0,0,0,0,0,0,0,0,0,0,0,0,0,0,0,0,0,0,0,0,0,0,0,0,0,0,0,0,0,0,0,0,0,0,0,0,0,0,0,0,0,0,0,0,0],"sum_hessian":[1.3842106E5,1.08544586E5,2.9876484E4,8.56163E4,2.2928291E4,7.3719897E3,2.2504494E4,4.9916133E4,3.570016E4,1.9820652E4,3.1076384E3,2.1206172E3,5.251372E3,5.423899E3,1.7080596E4,4.264605E4,7.270081E3,3.5307812E4,3.9234805E2,5.059538E3,1.4761114E4,1.7918147E3,1.3158236E3,2.0645435E3,5.607374E1,1.2223994E3,4.028973E3,1.0723346E3,4.351564E3,2.8706091E3,1.4209986E4,4.256576E4,8.029052E1,9.3312964E2,6.3369517E3,3.521943E4,8.838191E1,2.6120596E2,1.3114209E2,5.031927E3,2.7611183E1,7.776915E3,6.984199E3,1.7671515E3,2.4663216E1,8.399938E2,4.7582986E2,5.2750635E2,1.5370371E3,2.480741E1,3.1266329E1,4.3577628E2,7.866231E2,1.8945599E3,2.1344128E3,6.6139014E2,4.1094446E2,3.7361516E3,6.154126E2,1.0415865E3,1.8290227E3,1.0904241E4,3.3057458E3],"tree_param":{"num_deleted":"0","num_feature":"225","num_nodes":"63","size_leaf_vector":"1"}},{"base_weights":[-3.541601E-1,-8.5078984E-1,1.3625814E0,-9.5048267E-1,-4.7021195E-1,9.821367E-1,1.7966622E0,-1.0471733E0,-8.52497E-1,-8.107091E-1,-3.7006027E-1,1.104836E0,-2.8947683E-2,5.347667E-1,1.8872497E0,-1.0601964E0,-7.7012277E-1,-6.7767334E-1,-9.194592E-1,3.4865695E-1,-8.679577E-1,-4.0076017E-2,-5.2635163E-1,4.4743726E-1,1.2616519E0,-4.5060503E-1,4.7785085E-1,1.202431E-1,2.2173724E0,9.1258454E-1,1.9445854E0,-4.2905938E-2,-5.3734243E-2,1.2424671E-1,-4.225181E-2,-3.53101E-2,1.0638221E-1,-4.631529E-2,7.324824E-2,1.3286935E-1,-2.6448283E-2,1.4452717E-2,-4.4944324E-2,2.0377016E-2,-1.9520234E-2,1.637424E-3,-3.1192541E-2,5.7009425E-2,5.871109E-3,2.8458467E-2,7.056318E-2,-3.1497978E-2,8.005145E-2,-5.7632617E-5,5.5515695E-2,2.9686457E-2,-3.5930056E-2,1.326601E-1,-5.991136E-2,3.0095309E-2,1.2615742E-1,1.02573834E-1,8.102604E-2],"categories":[],"categories_nodes":[],"categories_segments":[],"categories_sizes":[],"default_left":[0,0,0,0,0,0,0,0,0,0,0,0,0,0,0,0,0,0,0,0,0,0,0,0,0,0,0,0,0,0,0,0,0,0,0,0,0,0,0,0,0,0,0,0,0,0,0,0,0,0,0,0,0,0,0,0,0,0,0,0,0,0,0],"id":6,"left_children":[1,3,5,7,9,11,13,15,17,19,21,23,25,27,29,31,33,35,37,39,41,43,45,47,49,51,53,55,57,59,61,-1,-1,-1,-1,-1,-1,-1,-1,-1,-1,-1,-1,-1,-1,-1,-1,-1,-1,-1,-1,-1,-1,-1,-1,-1,-1,-1,-1,-1,-1,-1,-1],"loss_changes":[1.1589816E5,3.9998828E3,5.035332E3,7.906797E2,7.461089E2,2.0168789E3,1.6273867E3,1.5089062E2,4.8522266E2,3.304309E2,8.723501E2,1.4940195E3,3.7639117E2,6.661888E2,7.409492E2,1.1665234E2,4.6331897E2,9.2168604E2,4.9119336E2,4.7708206E2,1.698855E2,8.528537E2,6.25728E2,6.385772E2,1.211875E3,3.5477335E2,2.4234497E2,3.0534512E2,2.8424982E2,3.6889612E2,4.3144922E2,0E0,0E0,0E0,0E0,0E0,0E0,0E0,0E0,0E0,0E0,0E0,0E0,0E0,0E0,0E0,0E0,0E0,0E0,0E0,0E0,0E0,0E0,0E0,0E0,0E0,0E0,0E0,0E0,0E0,0E0,0E0,0E0],"parents":[2147483647,0,0,1,1,2,2,3,3,4,4,5,5,6,6,7,7,8,8,9,9,10,10,11,11,12,12,13,13,14,14,15,15,16,16,17,17,18,18,19,19,20,20,21,21,22,22,23,23,24,24,25,25,26,26,27,27,28,28,29,29,30,30],"right_children":[2,4,6,8,10,12,14,16,18,20,22,24,26,28,30,32,34,36,38,40,42,44,46,48,50,52,54,56,58,60,62,-1,-1,-1,-1,-1,-1,-1,-1,-1,-1,-1,-1,-1,-1,-1,-1,-1,-1,-1,-1,-1,-1,-1,-1,-1,-1,-1,-1,-1,-1,-1,-1],"split_conditions":[6.407593E-1,8.177289E-1,1.1965443E0,-3.7924033E-1,-8.6835724E-1,3.5081232E-1,8.965195E-1,1.0836948E0,-2.5849134E-1,-1.9756755E0,-1.068227E0,1.0810022E0,-7.0723534E-1,3.22886E0,-4.502333E-1,-3.6930427E-1,-7.3842865E-1,3.4906483E0,4.7438416E0,-2.3967706E-1,-5.453439E-1,1.0233318E0,-2.917907E0,9.3613125E-2,-1.7304571E-2,3.1455314E0,4.250575E-1,1.379747E-1,6.311735E-1,2.5294867E0,1.4026294E0,-4.2905938E-2,-5.3734243E-2,1.2424671E-1,-4.225181E-2,-3.53101E-2,1.0638221E-1,-4.631529E-2,7.324824E-2,1.3286935E-1,-2.6448283E-2,1.4452717E-2,-4.4944324E-2,2.0377016E-2,-1.9520234E-2,1.637424E-3,-3.1192541E-2,5.7009425E-2,5.871109E-3,2.8458467E-2,7.056318E-2,-3.1497978E-2,8.005145E-2,-5.7632617E-5,5.5515695E-2,2.9686457E-2,-3.5930056E-2,1.326601E-1,-5.991136E-2,3.0095309E-2,1.2615742E-1,1.02573834E-1,8.102604E-2],"split_indices":[76,71,79,71,1,90,76,78,104,97,17,76,74,77,71,194,66,47,77,190,194,75,97,78,93,18,56,78,19,90,78,0,0,0,0,0,0,0,0,0,0,0,0,0,0,0,0,0,0,0,0,0,0,0,0,0,0,0,0,0,0,0,0],"split_type":[0,0,0,0,0,0,0,0,0,0,0,0,0,0,0,0,0,0,0,0,0,0,0,0,0,0,0,0,0,0,0,0,0,0,0,0,0,0,0,0,0,0,0,0,0,0,0,0,0,0,0,0,0,0,0,0,0,0,0,0,0,0,0],"sum_hessian":[1.3593505E5,1.0543473E5,3.0500314E4,8.354778E4,2.1886941E4,1.6256115E4,1.42442E4,4.204691E4,4.150087E4,4.972902E3,1.691404E4,1.4496777E4,1.7593372E3,9.5451935E2,1.3289681E4,4.015649E4,1.890424E3,1.1496687E4,3.0004186E4,2.3376357E2,4.739138E3,5.4366587E3,1.147738E4,2.792787E3,1.170399E4,9.603964E2,7.989408E2,7.667065E2,1.8781288E2,7.3928577E2,1.2550395E4,2.6905408E3,3.7465945E4,4.1804626E1,1.8486193E3,1.1381688E4,1.1499788E2,2.9918889E4,8.52966E1,6.3827343E1,1.6993622E2,1.2316898E2,4.615969E3,2.3868315E3,3.0498274E3,1.7043881E3,9.772992E3,9.00354E2,1.8924331E3,2.080258E3,9.623732E3,8.8382513E2,7.6571304E1,4.5519305E2,3.4374774E2,4.9026715E2,2.7643933E2,1.6675783E2,2.105505E1,6.2088965E2,1.1839614E2,9.433477E3,3.1169187E3],"tree_param":{"num_deleted":"0","num_feature":"225","num_nodes":"63","size_leaf_vector":"1"}},{"base_weights":[-3.4343457E-1,-8.33323E-1,1.2604924E0,-9.37405E-1,-4.5270485E-1,9.002439E-1,1.648944E0,-1.0218924E0,-8.231916E-1,-4.9410126E-1,4.5001972E-1,5.6945753E-1,1.366004E0,7.969618E-1,1.7583278E0,-7.429904E-1,-1.0387813E0,-8.4648746E-1,-1.3519102E-1,-8.4156936E-1,-3.967858E-1,2.2117552E-1,2.4422128E0,2.863596E-1,9.0230596E-1,6.528848E-1,1.5317913E0,6.1288583E-1,2.2898047E0,1.2131187E0,1.8402252E0,-4.2034782E-2,2.9833803E-2,-5.208559E-2,1.2963424E-2,-3.0562688E-2,-4.4654828E-2,8.120408E-2,-1.1600911E-2,7.6156794E-3,-4.452203E-2,-9.599684E-3,-3.0894706E-2,-1.0302156E-2,4.913052E-2,1.7085657E-1,-3.2942349E-3,2.9090509E-2,-3.3329253E-4,5.8205124E-2,1.8351901E-2,7.514315E-2,4.5061144E-3,5.2337427E-2,8.890543E-2,1.2601443E-2,7.5648434E-2,1.0236781E-1,1.8317997E-1,-3.267162E-2,6.5694936E-2,9.58252E-2,6.724671E-2],"categories":[],"categories_nodes":[],"categories_segments":[],"categories_sizes":[],"default_left":[0,0,0,0,0,0,0,0,0,0,0,0,0,0,0,0,0,0,0,0,0,0,0,0,0,0,0,0,0,0,0,0,0,0,0,0,0,0,0,0,0,0,0,0,0,0,0,0,0,0,0,0,0,0,0,0,0,0,0,0,0,0,0],"id":7,"left_children":[1,3,5,7,9,11,13,15,17,19,21,23,25,27,29,31,33,35,37,39,41,43,45,47,49,51,53,55,57,59,61,-1,-1,-1,-1,-1,-1,-1,-1,-1,-1,-1,-1,-1,-1,-1,-1,-1,-1,-1,-1,-1,-1,-1,-1,-1,-1,-1,-1,-1,-1,-1,-1],"loss_changes":[1.048817E5,4.0502422E3,4.368875E3,7.739453E2,8.2080225E2,2.4959766E3,1.3988945E3,2.1660547E2,5.471543E2,7.0963135E2,4.3864264E2,8.9279785E2,7.945547E2,4.688988E2,5.923125E2,3.4585352E2,1.6578125E2,3.6156445E2,1.9107732E2,2.2322412E2,7.42687E2,2.816418E2,2.4268213E2,4.4352444E2,6.0992163E2,6.078509E2,6.503545E2,4.9492584E2,5.4951355E1,3.28521E2,4.3470703E2,0E0,0E0,0E0,0E0,0E0,0E0,0E0,0E0,0E0,0E0,0E0,0E0,0E0,0E0,0E0,0E0,0E0,0E0,0E0,0E0,0E0,0E0,0E0,0E0,0E0,0E0,0E0,0E0,0E0,0E0,0E0,0E0],"parents":[2147483647,0,0,1,1,2,2,3,3,4,4,5,5,6,6,7,7,8,8,9,9,10,10,11,11,12,12,13,13,14,14,15,15,16,16,17,17,18,18,19,19,20,20,21,21,22,22,23,23,24,24,25,25,26,26,27,27,28,28,29,29,30,30],"right_children":[2,4,6,8,10,12,14,16,18,20,22,24,26,28,30,32,34,36,38,40,42,44,46,48,50,52,54,56,58,60,62,-1,-1,-1,-1,-1,-1,-1,-1,-1,-1,-1,-1,-1,-1,-1,-1,-1,-1,-1,-1,-1,-1,-1,-1,-1,-1,-1,-1,-1,-1,-1,-1],"split_conditions":[6.407593E-1,7.993447E-1,1.1658018E0,-2.3998462E-1,3.7392008E0,1.9271426E0,1.0810022E0,-3.9469916E-1,3.9338472E-1,-8.705157E-1,1.2758254E0,9.89963E-2,-2.6961264E-1,1.9071642E0,-4.6411224E-2,1.3821794E0,1.8850176E0,-4.7732428E-1,-1.7315554E-2,-1.9756755E0,-2.4842474E-1,-1.7041055E-2,1.8727279E-1,4.861582E-3,1.04327E0,-1.3362658E-1,-1.139751E-1,1.6691917E0,1.6369201E0,-1.3067916E-1,2.1133323E0,-4.2034782E-2,2.9833803E-2,-5.208559E-2,1.2963424E-2,-3.0562688E-2,-4.4654828E-2,8.120408E-2,-1.1600911E-2,7.6156794E-3,-4.452203E-2,-9.599684E-3,-3.0894706E-2,-1.0302156E-2,4.913052E-2,1.7085657E-1,-3.2942349E-3,2.9090509E-2,-3.3329253E-4,5.8205124E-2,1.8351901E-2,7.514315E-2,4.5061144E-3,5.2337427E-2,8.890543E-2,1.2601443E-2,7.5648434E-2,1.0236781E-1,1.8317997E-1,-3.267162E-2,6.5694936E-2,9.58252E-2,6.724671E-2],"split_indices":[76,71,79,71,74,81,76,194,76,1,51,45,74,81,71,103,81,118,93,97,78,93,173,112,98,140,92,74,18,77,78,0,0,0,0,0,0,0,0,0,0,0,0,0,0,0,0,0,0,0,0,0,0,0,0,0,0,0,0,0,0,0,0],"split_type":[0,0,0,0,0,0,0,0,0,0,0,0,0,0,0,0,0,0,0,0,0,0,0,0,0,0,0,0,0,0,0,0,0,0,0,0,0,0,0,0,0,0,0,0,0,0,0,0,0,0,0,0,0,0,0,0,0,0,0,0,0,0,0],"sum_hessian":[1.3347819E5,1.02248766E5,3.1229424E4,8.029125E4,2.1957516E4,1.6204631E4,1.5024793E4,4.6146902E4,3.4144348E4,2.0995188E4,9.623276E2,9.476541E3,6.72809E3,1.7104567E3,1.3314337E4,2.6374417E3,4.350946E4,3.302585E4,1.1184932E3,4.5919233E3,1.6403264E4,8.641709E2,9.81567E1,5.12199E3,4.3545513E3,1.270045E3,5.4580444E3,1.5239551E3,1.8650168E2,1.7408589E3,1.1573478E4,2.4585088E3,1.7893277E2,4.3411652E4,9.780986E1,5.463907E3,2.7561945E4,5.752562E1,1.0609675E3,2.1511234E2,4.376811E3,8.516806E3,7.886458E3,5.54043E2,3.101278E2,7.042103E1,2.7735678E1,2.5499504E3,2.5720398E3,2.923506E3,1.431045E3,5.0525452E2,7.647906E2,1.8400018E3,3.6180427E3,1.0887418E3,4.3521326E2,1.6064177E2,2.5859911E1,8.889758E1,1.6519613E3,1.0026453E4,1.5470245E3],"tree_param":{"num_deleted":"0","num_feature":"225","num_nodes":"63","size_leaf_vector":"1"}},{"base_weights":[-3.3534592E-1,-8.171648E-1,1.1640431E0,-9.227528E-1,-4.385273E-1,7.993932E-1,1.4977582E0,-1.0243524E0,-8.2041323E-1,-4.9260405E-1,3.2718933E-1,5.008999E-1,1.2389824E0,1.6017382E0,7.2367936E-1,-1.0267614E0,7.614171E-1,-8.4367543E-1,-1.2427425E-1,-8.4799135E-1,-3.9224687E-1,7.116415E-2,1.5831934E0,1.1639972E-1,7.176893E-1,9.520763E-1,1.7764691E0,5.319438E-1,1.661166E0,-1.8994558E-1,1.0633233E0,-5.1752962E-2,-2.8386453E-2,-5.712809E-2,1.7977123E-1,-4.4496488E-2,-2.9845584E-2,-9.03429E-3,1.4391367E-1,1.3142872E-2,-4.5213394E-2,-2.2863707E-2,1.614595E-2,3.940491E-2,-1.4138612E-2,1.3015044E-1,1.9959902E-2,-9.870293E-3,2.5348395E-2,4.2263146E-2,-5.782612E-3,5.2999195E-2,-1.2830843E-2,3.202868E-2,9.953665E-2,-1.2782161E-2,6.605946E-2,8.838661E-3,8.422564E-2,2.3853837E-2,-4.8617713E-2,7.8891395E-3,7.770383E-2],"categories":[],"categories_nodes":[],"categories_segments":[],"categories_sizes":[],"default_left":[0,0,0,0,0,0,0,0,0,0,0,0,0,0,0,0,0,0,0,0,0,0,0,0,0,0,0,0,0,0,0,0,0,0,0,0,0,0,0,0,0,0,0,0,0,0,0,0,0,0,0,0,0,0,0,0,0,0,0,0,0,0,0],"id":8,"left_children":[1,3,5,7,9,11,13,15,17,19,21,23,25,27,29,31,33,35,37,39,41,43,45,47,49,51,53,55,57,59,61,-1,-1,-1,-1,-1,-1,-1,-1,-1,-1,-1,-1,-1,-1,-1,-1,-1,-1,-1,-1,-1,-1,-1,-1,-1,-1,-1,-1,-1,-1,-1,-1],"loss_changes":[9.465182E4,3.9637656E3,3.8761758E3,8.053125E2,8.95521E2,1.997502E3,1.3378555E3,1.6813672E2,6.2547266E2,7.2001416E2,4.587488E2,7.5604834E2,9.4788477E2,9.3146484E2,6.1208765E2,1.4739453E2,2.899953E2,4.2613477E2,2.1229643E2,2.7821924E2,7.326765E2,3.0126453E2,2.9064795E2,4.010898E2,6.1675757E2,5.241819E2,5.200171E2,4.8099323E2,4.8117188E2,2.797961E2,6.386344E2,0E0,0E0,0E0,0E0,0E0,0E0,0E0,0E0,0E0,0E0,0E0,0E0,0E0,0E0,0E0,0E0,0E0,0E0,0E0,0E0,0E0,0E0,0E0,0E0,0E0,0E0,0E0,0E0,0E0,0E0,0E0,0E0],"parents":[2147483647,0,0,1,1,2,2,3,3,4,4,5,5,6,6,7,7,8,8,9,9,10,10,11,11,12,12,13,13,14,14,15,15,16,16,17,17,18,18,19,19,20,20,21,21,22,22,23,23,24,24,25,25,26,26,27,27,28,28,29,29,30,30],"right_children":[2,4,6,8,10,12,14,16,18,20,22,24,26,28,30,32,34,36,38,40,42,44,46,48,50,52,54,56,58,60,62,-1,-1,-1,-1,-1,-1,-1,-1,-1,-1,-1,-1,-1,-1,-1,-1,-1,-1,-1,-1,-1,-1,-1,-1,-1,-1,-1,-1,-1,-1,-1,-1],"split_conditions":[6.407593E-1,7.993447E-1,1.0541847E0,-3.7924033E-1,3.2263646E0,1.9271426E0,-2.7548185E-1,1.8980832E0,3.9338472E-1,-9.662175E-1,8.632348E-1,-1.6114597E-1,6.640981E-2,1.6683747E0,1.3778743E0,2.19361E0,2.6592665E0,-3.4329478E-2,3.526044E0,-1.9756755E0,4.415209E0,-6.029407E-1,-2.7102279E-2,1.4480661E-1,4.0956143E-1,4.7054906E0,-2.0914425E-1,1.9209074E0,-6.0842955E-1,5.93184E-1,1.8752242E0,-5.1752962E-2,-2.8386453E-2,-5.712809E-2,1.7977123E-1,-4.4496488E-2,-2.9845584E-2,-9.03429E-3,1.4391367E-1,1.3142872E-2,-4.5213394E-2,-2.2863707E-2,1.614595E-2,3.940491E-2,-1.4138612E-2,1.3015044E-1,1.9959902E-2,-9.870293E-3,2.5348395E-2,4.2263146E-2,-5.782612E-3,5.2999195E-2,-1.2830843E-2,3.202868E-2,9.953665E-2,-1.2782161E-2,6.605946E-2,8.838661E-3,8.422564E-2,2.3853837E-2,-4.8617713E-2,7.8891395E-3,7.770383E-2],"split_indices":[76,71,79,71,74,81,91,81,76,2,51,45,94,81,79,78,0,92,47,97,97,21,183,114,90,80,114,79,74,97,81,0,0,0,0,0,0,0,0,0,0,0,0,0,0,0,0,0,0,0,0,0,0,0,0,0,0,0,0,0,0,0,0],"split_type":[0,0,0,0,0,0,0,0,0,0,0,0,0,0,0,0,0,0,0,0,0,0,0,0,0,0,0,0,0,0,0,0,0,0,0,0,0,0,0,0,0,0,0,0,0,0,0,0,0,0,0,0,0,0,0,0,0,0,0,0,0,0,0],"sum_hessian":[1.31015664E5,9.915372E4,3.1861943E4,7.753158E4,2.1622139E4,1.5226915E4,1.663503E4,3.8901926E4,3.8629652E4,2.0196191E4,1.425947E3,9.070163E3,6.156752E3,1.4664158E4,1.9708708E3,3.8849945E4,5.1982418E1,3.7380336E4,1.2493151E3,4.4456597E3,1.5750531E4,1.1853755E3,2.405715E2,3.270717E3,5.7994463E3,4.0158787E3,2.140873E3,7.72256E2,1.3891901E4,5.342381E2,1.4366327E3,3.8158902E4,6.910413E2,3.1450071E1,2.0532347E1,3.1477473E4,5.9028647E3,1.2271984E3,2.2116653E1,2.1418408E2,4.2314756E3,1.4438093E4,1.3124386E3,3.9137634E2,7.9399915E2,1.2860295E2,1.1196856E2,1.813854E3,1.4568629E3,5.029484E3,7.6996234E2,3.6868535E3,3.2902527E2,3.403795E2,1.8004937E3,3.868725E2,3.853835E2,2.1524376E2,1.3676658E4,2.8859454E2,2.4564359E2,5.0539566E2,9.3123706E2],"tree_param":{"num_deleted":"0","num_feature":"225","num_nodes":"63","size_leaf_vector":"1"}},{"base_weights":[-3.2466316E-1,-8.0167866E-1,1.083905E0,-9.071165E-1,-4.3000802E-1,7.0652103E-1,1.3622453E0,-9.93831E-1,-7.820668E-1,-7.985726E-1,-3.3306342E-1,2.912323E-1,9.2529005E-1,6.364067E-1,1.4922497E0,-1.0268135E0,-8.080898E-1,-8.00543E-1,1.5419373E-1,2.4583393E-1,-8.5366404E-1,1.7182889E-3,-4.9435598E-1,1.426056E-1,1.0115699E0,3.028691E-1,1.1069372E0,4.2197477E-2,1.0000435E0,8.047982E-1,1.590297E0,-5.1864035E-2,-3.2978475E-2,-4.2351183E-2,2.0832901E-3,-3.230004E-2,-4.4068296E-2,3.0676672E-2,-3.155358E-2,7.49101E-2,-5.8618844E-2,-4.3657724E-2,5.4368723E-2,2.1217046E-2,-1.7597714E-2,3.1255502E-3,-2.969621E-2,1.8316498E-2,-1.7316287E-2,3.602502E-2,1.3315433E-1,-2.5244204E-2,3.6142208E-2,6.749177E-2,3.5039663E-2,-1.2031003E-2,3.9017674E-2,-3.1520337E-2,5.61884E-2,6.476686E-2,1.2731125E-2,7.436607E-2,9.0079494E-2],"categories":[],"categories_nodes":[],"categories_segments":[],"categories_sizes":[],"default_left":[0,0,0,0,0,0,0,0,0,0,0,0,0,0,0,0,0,0,0,0,0,0,0,0,0,0,0,0,0,0,0,0,0,0,0,0,0,0,0,0,0,0,0,0,0,0,0,0,0,0,0,0,0,0,0,0,0,0,0,0,0,0,0],"id":9,"left_children":[1,3,5,7,9,11,13,15,17,19,21,23,25,27,29,31,33,35,37,39,41,43,45,47,49,51,53,55,57,59,61,-1,-1,-1,-1,-1,-1,-1,-1,-1,-1,-1,-1,-1,-1,-1,-1,-1,-1,-1,-1,-1,-1,-1,-1,-1,-1,-1,-1,-1,-1,-1,-1],"loss_changes":[8.648644E4,3.7677188E3,3.4195E3,8.114492E2,7.590513E2,1.2557085E3,1.7673711E3,2.701211E2,5.307832E2,2.5481396E2,9.086404E2,5.1067627E2,1.0233301E3,6.1541833E2,1.0699102E3,1.4367969E2,2.2084277E2,3.751875E2,2.148248E2,3.9693393E2,1.5997437E2,8.1808E2,6.296924E2,4.3289825E2,3.9029474E2,6.947098E2,6.904346E2,2.2615144E2,3.5715027E2,5.355853E2,2.9992578E2,0E0,0E0,0E0,0E0,0E0,0E0,0E0,0E0,0E0,0E0,0E0,0E0,0E0,0E0,0E0,0E0,0E0,0E0,0E0,0E0,0E0,0E0,0E0,0E0,0E0,0E0,0E0,0E0,0E0,0E0,0E0,0E0],"parents":[2147483647,0,0,1,1,2,2,3,3,4,4,5,5,6,6,7,7,8,8,9,9,10,10,11,11,12,12,13,13,14,14,15,15,16,16,17,17,18,18,19,19,20,20,21,21,22,22,23,23,24,24,25,25,26,26,27,27,28,28,29,29,30,30],"right_children":[2,4,6,8,10,12,14,16,18,20,22,24,26,28,30,32,34,36,38,40,42,44,46,48,50,52,54,56,58,60,62,-1,-1,-1,-1,-1,-1,-1,-1,-1,-1,-1,-1,-1,-1,-1,-1,-1,-1,-1,-1,-1,-1,-1,-1,-1,-1,-1,-1,-1,-1,-1,-1],"split_conditions":[6.407593E-1,7.993447E-1,9.295562E-1,-2.0215598E-1,-8.725217E-1,1.8472289E0,-8.6694315E-2,-1.0585381E-2,4.9820444E-1,-1.9756755E0,-1.068227E0,2.131141E0,-3.5956046E-1,1.3778743E0,1.1816292E0,1.6979927E0,2.7181773E0,-1.408355E-1,-2.5247235E-3,-1.7374417E-2,2.1055686E0,1.0233318E0,-2.917907E0,1.3660459E-2,8.586289E-1,2.395712E-1,-9.597019E-2,8.3322275E-1,1.7579869E0,-5.243875E-1,1.8128082E-1,-5.1864035E-2,-3.2978475E-2,-4.2351183E-2,2.0832901E-3,-3.230004E-2,-4.4068296E-2,3.0676672E-2,-3.155358E-2,7.49101E-2,-5.8618844E-2,-4.3657724E-2,5.4368723E-2,2.1217046E-2,-1.7597714E-2,3.1255502E-3,-2.969621E-2,1.8316498E-2,-1.7316287E-2,3.602502E-2,1.3315433E-1,-2.5244204E-2,3.6142208E-2,6.749177E-2,3.5039663E-2,-1.2031003E-2,3.9017674E-2,-3.1520337E-2,5.61884E-2,6.476686E-2,1.2731125E-2,7.436607E-2,9.0079494E-2],"split_indices":[76,71,79,71,1,81,71,94,76,97,17,74,71,79,76,81,18,104,94,217,111,75,97,94,56,79,44,19,81,19,146,0,0,0,0,0,0,0,0,0,0,0,0,0,0,0,0,0,0,0,0,0,0,0,0,0,0,0,0,0,0,0,0],"split_type":[0,0,0,0,0,0,0,0,0,0,0,0,0,0,0,0,0,0,0,0,0,0,0,0,0,0,0,0,0,0,0,0,0,0,0,0,0,0,0,0,0,0,0,0,0,0,0,0,0,0,0,0,0,0,0,0,0,0,0,0,0,0,0],"sum_hessian":[1.2871522E5,9.615313E4,3.2562092E4,7.4902805E4,2.1250324E4,1.3823381E4,1.873871E4,4.422703E4,3.0675773E4,4.4239795E3,1.6826346E4,4.770286E3,9.053095E3,2.8473474E3,1.5891363E4,3.755394E4,6.6730913E3,3.0082275E4,5.9349817E2,2.2149458E2,4.202485E3,5.4712046E3,1.1355141E4,3.9553748E3,8.149113E2,2.0457891E3,7.007306E3,1.0813911E3,1.7659564E3,1.9847341E3,1.3906629E4,3.651147E4,1.0424694E3,6.380743E3,2.9234802E2,1.0333155E4,1.9749121E4,3.7459695E2,2.189012E2,1.1759475E2,1.0389984E2,4.161251E3,4.1233906E1,2.4925369E3,2.978668E3,1.7224056E3,9.632734E3,2.713834E3,1.2415406E3,6.940293E2,1.2088206E2,6.9974396E2,1.346045E3,4.38343E3,2.6238757E3,7.823247E2,2.9906638E2,1.24266594E2,1.6416898E3,1.0485172E3,9.362169E2,9.355283E3,4.5513457E3],"tree_param":{"num_deleted":"0","num_feature":"225","num_nodes":"63","size_leaf_vector":"1"}},{"base_weights":[-3.14568E-1,-7.848058E-1,1.0158501E0,-8.903672E-1,-4.1015798E-1,5.894995E-1,1.2337481E0,-9.819611E-1,-7.6115555E-1,-7.8070456E-1,-3.1374064E-1,-2.2929084E-1,7.4746937E-1,5.2548933E-1,1.3958709E0,-1.0178387E0,-7.845301E-1,-7.8826493E-1,-3.4733925E-2,1.282121E-1,-8.298375E-1,-8.090787E-1,-2.2301532E-1,1.5461836E0,-3.811379E-1,2.770926E-1,9.3527997E-1,1.6260848E0,4.0018478E-1,1.5441608E0,1.1508293E0,-5.1471718E-2,-3.464484E-2,-7.0001245E-3,-4.2498168E-2,-4.41774E-2,-3.306407E-2,7.4622864E-3,-4.6774518E-2,1.4723156E-1,-2.616085E-2,-4.258221E-2,5.556632E-2,-4.4316433E-2,-1.8324794E-2,-1.5921695E-2,1.4872811E-2,1.311762E-1,1.406855E-2,-4.17626E-5,-3.8374715E-2,4.572184E-2,-2.9698883E-3,5.3032238E-2,7.401983E-3,1.0092827E-1,1.4394968E-2,4.3226E-2,7.2063445E-3,3.420598E-2,8.156074E-2,4.5408923E-2,7.427638E-2],"categories":[],"categories_nodes":[],"categories_segments":[],"categories_sizes":[],"default_left":[0,0,0,0,0,0,0,0,0,0,0,0,0,0,0,0,0,0,0,0,0,0,0,0,0,0,0,0,0,0,0,0,0,0,0,0,0,0,0,0,0,0,0,0,0,0,0,0,0,0,0,0,0,0,0,0,0,0,0,0,0,0,0],"id":10,"left_children":[1,3,5,7,9,11,13,15,17,19,21,23,25,27,29,31,33,35,37,39,41,43,45,47,49,51,53,55,57,59,61,-1,-1,-1,-1,-1,-1,-1,-1,-1,-1,-1,-1,-1,-1,-1,-1,-1,-1,-1,-1,-1,-1,-1,-1,-1,-1,-1,-1,-1,-1,-1,-1],"loss_changes":[7.898629E4,3.6888242E3,3.0623242E3,8.605586E2,7.324336E2,1.4428032E3,2.5046016E3,3.0083984E2,5.9456445E2,1.8917334E2,7.312114E2,4.8710843E2,8.257217E2,5.600481E2,6.4335547E2,1.3505078E2,2.7623584E2,3.515918E2,1.8032658E2,4.0148233E2,1.709751E2,8.580054E1,6.832984E2,1.9326743E2,2.4437971E2,5.725242E2,6.592539E2,2.1751099E2,4.34021E2,8.267715E2,5.425762E2,0E0,0E0,0E0,0E0,0E0,0E0,0E0,0E0,0E0,0E0,0E0,0E0,0E0,0E0,0E0,0E0,0E0,0E0,0E0,0E0,0E0,0E0,0E0,0E0,0E0,0E0,0E0,0E0,0E0,0E0,0E0,0E0],"parents":[2147483647,0,0,1,1,2,2,3,3,4,4,5,5,6,6,7,7,8,8,9,9,10,10,11,11,12,12,13,13,14,14,15,15,16,16,17,17,18,18,19,19,20,20,21,21,22,22,23,23,24,24,25,25,26,26,27,27,28,28,29,29,30,30],"right_children":[2,4,6,8,10,12,14,16,18,20,22,24,26,28,30,32,34,36,38,40,42,44,46,48,50,52,54,56,58,60,62,-1,-1,-1,-1,-1,-1,-1,-1,-1,-1,-1,-1,-1,-1,-1,-1,-1,-1,-1,-1,-1,-1,-1,-1,-1,-1,-1,-1,-1,-1,-1,-1],"split_conditions":[6.407593E-1,8.177289E-1,9.856233E-1,-2.0215598E-1,-8.725217E-1,-1.7325982E-2,-3.1744593E-1,-1.1660265E-2,3.9338472E-1,-1.9756755E0,-2.3553374E-1,-6.748975E-1,9.887608E-1,-1.9539683E0,1.2993797E0,1.1663843E0,-3.6930427E-1,-9.7813584E-2,8.1636846E-1,-2.6244935E-1,2.1055686E0,1.4639946E0,3.3748608E0,-1.8366404E-2,7.3506546E-1,1.4346719E-2,-5.6449402E-2,1.4116047E-1,1.1091784E0,1.286449E0,3.8110375E-2,-5.1471718E-2,-3.464484E-2,-7.0001245E-3,-4.2498168E-2,-4.41774E-2,-3.306407E-2,7.4622864E-3,-4.6774518E-2,1.4723156E-1,-2.616085E-2,-4.258221E-2,5.556632E-2,-4.4316433E-2,-1.8324794E-2,-1.5921695E-2,1.4872811E-2,1.311762E-1,1.406855E-2,-4.17626E-5,-3.8374715E-2,4.572184E-2,-2.9698883E-3,5.3032238E-2,7.401983E-3,1.0092827E-1,1.4394968E-2,4.3226E-2,7.2063445E-3,3.420598E-2,8.156074E-2,4.5408923E-2,7.427638E-2],"split_indices":[76,71,77,71,1,93,74,94,76,97,76,91,76,99,78,78,194,92,49,177,111,83,97,78,80,78,90,162,78,76,94,0,0,0,0,0,0,0,0,0,0,0,0,0,0,0,0,0,0,0,0,0,0,0,0,0,0,0,0,0,0,0,0],"split_type":[0,0,0,0,0,0,0,0,0,0,0,0,0,0,0,0,0,0,0,0,0,0,0,0,0,0,0,0,0,0,0,0,0,0,0,0,0,0,0,0,0,0,0,0,0,0,0,0,0,0,0,0,0,0,0,0,0,0,0,0,0,0,0],"sum_hessian":[1.26251984E5,9.328183E4,3.2970156E4,7.277519E4,2.050664E4,1.1152433E4,2.1817725E4,4.2582945E4,3.0192246E4,4.2326846E3,1.6273956E4,1.8035924E3,9.34884E3,4.0646982E3,1.7753027E4,3.603113E4,6.551814E3,2.9105955E4,1.0862919E3,2.1698778E2,4.0156968E3,2.518058E3,1.3755897E4,1.4137541E2,1.6622169E3,2.6683525E3,6.6804873E3,4.1424612E2,3.6504521E3,1.1056654E4,6.696372E3,3.4787555E4,1.2435743E3,6.041345E2,5.947679E3,1.6625168E4,1.2480786E4,9.027412E2,1.8355072E2,4.0099487E1,1.7688829E2,3.971641E3,4.405551E1,2.1430073E3,3.7505084E2,1.1625054E4,2.1308442E3,7.576562E1,6.560979E1,8.3817615E2,8.2404083E2,9.2140594E2,1.7469465E3,5.7624873E3,9.18E2,3.1991022E2,9.43359E1,1.296679E3,2.3537732E3,1.01710516E3,1.0039549E4,3.8841433E3,2.8122288E3],"tree_param":{"num_deleted":"0","num_feature":"225","num_nodes":"63","size_leaf_vector":"1"}},{"base_weights":[-3.075738E-1,-7.6334983E-1,8.9782107E-1,-8.715279E-1,-3.055258E-1,3.260431E-2,1.0601482E0,-9.6759546E-1,-7.0156574E-1,3.2754627E-1,-3.8115758E-1,-1.5750326E-1,6.111345E-1,4.2870495E-1,1.2237697E0,-1.0181029E0,-8.4098935E-1,-3.980695E-1,-8.11831E-1,1.3628137E0,-4.9920765E-1,4.6755666E-1,-4.292217E-1,-3.8202977E-1,2.4816838E-1,-5.63329E-1,8.983362E-1,-1.6965191E-1,6.9546866E-1,8.505804E-1,1.3544325E0,-4.2606473E-2,-5.205651E-2,-4.7257196E-2,-3.5694443E-2,-3.888012E-2,-5.1301694E-3,-4.090102E-2,1.04766585E-1,-9.715488E-3,1.13530874E-1,-3.0540196E-2,5.5111017E-2,7.6994464E-2,8.686664E-4,-2.5182217E-2,1.2598503E-3,-6.6984403E-3,-3.2714613E-2,-2.5510743E-2,2.6828332E-2,3.7626263E-2,-6.1526835E-2,5.5949386E-2,-4.536771E-2,1.2704091E-1,-1.1206564E-2,6.290061E-2,2.2040632E-2,3.4247503E-2,6.863742E-2,6.943717E-2,1.8669587E-2],"categories":[],"categories_nodes":[],"categories_segments":[],"categories_sizes":[],"default_left":[0,0,0,0,0,0,0,0,0,0,0,0,0,0,0,0,0,0,0,0,0,0,0,0,0,0,0,0,0,0,0,0,0,0,0,0,0,0,0,0,0,0,0,0,0,0,0,0,0,0,0,0,0,0,0,0,0,0,0,0,0,0,0],"id":11,"left_children":[1,3,5,7,9,11,13,15,17,19,21,23,25,27,29,31,33,35,37,39,41,43,45,47,49,51,53,55,57,59,61,-1,-1,-1,-1,-1,-1,-1,-1,-1,-1,-1,-1,-1,-1,-1,-1,-1,-1,-1,-1,-1,-1,-1,-1,-1,-1,-1,-1,-1,-1,-1,-1],"loss_changes":[6.796591E4,4.4456562E3,4.7671816E3,1.1848984E3,8.216885E2,5.899558E2,2.9523652E3,2.9576953E2,8.7728125E2,1.5684406E3,6.2547095E2,3.67847E2,4.4800748E2,9.392169E2,1.1056641E3,1.25828125E2,1.7451758E2,7.838463E2,3.4781738E2,1.1504481E3,1.8280583E2,3.967926E2,4.90625E2,1.754711E2,3.1502527E2,2.3032864E2,4.2589575E2,2.685748E2,5.824059E2,5.0838135E2,5.6532227E2,0E0,0E0,0E0,0E0,0E0,0E0,0E0,0E0,0E0,0E0,0E0,0E0,0E0,0E0,0E0,0E0,0E0,0E0,0E0,0E0,0E0,0E0,0E0,0E0,0E0,0E0,0E0,0E0,0E0,0E0,0E0,0E0],"parents":[2147483647,0,0,1,1,2,2,3,3,4,4,5,5,6,6,7,7,8,8,9,9,10,10,11,11,12,12,13,13,14,14,15,15,16,16,17,17,18,18,19,19,20,20,21,21,22,22,23,23,24,24,25,25,26,26,27,27,28,28,29,29,30,30],"right_children":[2,4,6,8,10,12,14,16,18,20,22,24,26,28,30,32,34,36,38,40,42,44,46,48,50,52,54,56,58,60,62,-1,-1,-1,-1,-1,-1,-1,-1,-1,-1,-1,-1,-1,-1,-1,-1,-1,-1,-1,-1,-1,-1,-1,-1,-1,-1,-1,-1,-1,-1,-1,-1],"split_conditions":[1.6888927E0,7.863574E-1,-2.1041505E-1,-1.7014726E-1,-2.917907E0,5.959993E-1,-3.9738998E-1,-4.067265E-2,-2.5849134E-1,-1.0052041E-1,-6.757174E-1,1.8516686E0,-1.7325982E-2,-1.707721E-2,7.8553826E-1,-4.4753245E-1,3.510532E-2,-6.184059E-2,4.717263E0,2.9666743E-1,4.5090565E-1,-9.882655E-1,1.2859598E0,-1.1518331E-2,-1.6981302E-2,-1.98252E-1,1.4986087E0,1.7048374E0,-4.870935E-1,9.5243776E-1,3.995872E-3,-4.2606473E-2,-5.205651E-2,-4.7257196E-2,-3.5694443E-2,-3.888012E-2,-5.1301694E-3,-4.090102E-2,1.04766585E-1,-9.715488E-3,1.13530874E-1,-3.0540196E-2,5.5111017E-2,7.6994464E-2,8.686664E-4,-2.5182217E-2,1.2598503E-3,-6.6984403E-3,-3.2714613E-2,-2.5510743E-2,2.6828332E-2,3.7626263E-2,-6.1526835E-2,5.5949386E-2,-4.536771E-2,1.2704091E-1,-1.1206564E-2,6.290061E-2,2.2040632E-2,3.4247503E-2,6.863742E-2,6.943717E-2,1.8669587E-2],"split_indices":[81,73,77,74,97,74,74,94,104,163,91,81,93,93,79,128,95,94,77,108,135,54,12,58,93,44,80,81,90,74,93,0,0,0,0,0,0,0,0,0,0,0,0,0,0,0,0,0,0,0,0,0,0,0,0,0,0,0,0,0,0,0,0],"split_type":[0,0,0,0,0,0,0,0,0,0,0,0,0,0,0,0,0,0,0,0,0,0,0,0,0,0,0,0,0,0,0,0,0,0,0,0,0,0,0,0,0,0,0,0,0,0,0,0,0,0,0,0,0,0,0,0,0,0,0,0,0,0,0],"sum_hessian":[1.237093E5,8.97674E4,3.39419E4,7.260973E4,1.7157672E4,5.3621895E3,2.8579709E4,4.638622E4,2.6223512E4,1.830685E3,1.5326987E4,4.0365042E3,1.3256853E3,5.8823457E3,2.2697363E4,3.315322E4,1.3232999E4,6.9896567E3,1.9233855E4,8.1255237E2,1.0181326E3,8.2100397E2,1.4505983E4,2.5984192E3,1.438085E3,2.6029413E2,1.0653911E3,1.8139591E3,4.0683865E3,5.888005E3,1.6809357E4,4.043917E3,2.91093E4,7.2694766E3,5.9635225E3,3.0588557E3,3.9308008E3,1.9193709E4,4.0144947E1,2.9954297E2,5.1300946E2,9.523839E2,6.574872E1,2.4204187E2,5.789621E2,1.2464496E4,2.0414873E3,1.3604198E3,1.2379994E3,3.9599414E2,1.0420908E3,8.753378E1,1.7276035E2,9.4971796E2,1.156732E2,3.4842228E1,1.7791168E3,1.2665642E3,2.8018223E3,4.471856E3,1.4161492E3,1.6240934E4,5.6842426E2],"tree_param":{"num_deleted":"0","num_feature":"225","num_nodes":"63","size_leaf_vector":"1"}},{"base_weights":[-2.951284E-1,-7.531705E-1,9.0242356E-1,-4.4113326E-1,-8.824609E-1,5.259583E-1,1.094151E0,7.47612E-2,-5.2298355E-1,-9.362579E-1,-6.77348E-1,-2.156956E-1,6.635397E-1,4.1336504E-1,1.2246441E0,8.8411325E-1,-3.429239E-1,-6.864891E-1,-3.4132567E-1,-9.4660765E-1,-5.254336E-2,-6.9100565E-1,1.6690587E0,1.5327827E0,-3.78104E-1,2.8348285E-1,8.6991745E-1,-6.572779E-2,6.5271807E-1,1.3735533E0,9.794871E-1,8.3488725E-2,-3.0563376E-3,-3.195263E-2,3.4766242E-2,-3.5031922E-2,4.254296E-2,-1.9023564E-2,6.2463712E-2,-4.989041E-2,-4.1158188E-2,-3.7712898E-2,2.0156074E-2,-2.107179E-3,-3.6652554E-2,-3.752842E-2,2.3708168E-1,1.0137253E-1,-1.9070951E-2,2.328692E-3,-3.710456E-2,8.1696445E-3,6.69564E-2,6.884442E-2,3.4905195E-2,-4.228383E-2,1.4898548E-2,-5.8295347E-2,3.6934603E-2,2.8806109E-2,7.2748E-2,4.3416046E-2,8.321308E-2],"categories":[],"categories_nodes":[],"categories_segments":[],"categories_sizes":[],"default_left":[0,0,0,0,0,0,0,0,0,0,0,0,0,0,0,0,0,0,0,0,0,0,0,0,0,0,0,0,0,0,0,0,0,0,0,0,0,0,0,0,0,0,0,0,0,0,0,0,0,0,0,0,0,0,0,0,0,0,0,0,0,0,0],"id":12,"left_children":[1,3,5,7,9,11,13,15,17,19,21,23,25,27,29,31,33,35,37,39,41,43,45,47,49,51,53,55,57,59,61,-1,-1,-1,-1,-1,-1,-1,-1,-1,-1,-1,-1,-1,-1,-1,-1,-1,-1,-1,-1,-1,-1,-1,-1,-1,-1,-1,-1,-1,-1,-1,-1],"loss_changes":[6.6736484E4,3.549996E3,2.4289746E3,1.0887749E3,6.859453E2,1.1592937E3,1.9806816E3,1.1941261E3,6.607256E2,4.5077344E2,4.1558203E2,5.0557385E2,7.513721E2,4.115583E2,6.818125E2,8.9304364E2,7.168342E2,2.5533203E2,6.569562E2,3.0711328E2,1.830862E2,3.507578E2,5.621183E2,1.4407822E2,2.5168794E2,4.274869E2,5.399448E2,3.3965073E2,3.750406E2,7.547637E2,5.37126E2,0E0,0E0,0E0,0E0,0E0,0E0,0E0,0E0,0E0,0E0,0E0,0E0,0E0,0E0,0E0,0E0,0E0,0E0,0E0,0E0,0E0,0E0,0E0,0E0,0E0,0E0,0E0,0E0,0E0,0E0,0E0,0E0],"parents":[2147483647,0,0,1,1,2,2,3,3,4,4,5,5,6,6,7,7,8,8,9,9,10,10,11,11,12,12,13,13,14,14,15,15,16,16,17,17,18,18,19,19,20,20,21,21,22,22,23,23,24,24,25,25,26,26,27,27,28,28,29,29,30,30],"right_children":[2,4,6,8,10,12,14,16,18,20,22,24,26,28,30,32,34,36,38,40,42,44,46,48,50,52,54,56,58,60,62,-1,-1,-1,-1,-1,-1,-1,-1,-1,-1,-1,-1,-1,-1,-1,-1,-1,-1,-1,-1,-1,-1,-1,-1,-1,-1,-1,-1,-1,-1,-1,-1],"split_conditions":[6.407593E-1,-7.044196E-1,9.856233E-1,-2.917907E0,-1.0585381E-2,-1.7325982E-2,-3.9738998E-1,-1.4174207E-1,7.6154655E-1,4.9820444E-1,4.7438416E0,-6.748975E-1,1.801473E0,-1.7094778E-2,1.2993797E0,-2.8477889E-2,1.8056118E-1,2.7181773E0,1.6979927E0,-1.5319873E-1,-2.785544E-1,-4.3305722E-1,-2.8605333E-1,1.0953636E-1,3.6267558E-1,1.7099206E0,5.8235675E-1,-5.241919E-1,-8.0964506E-1,1.286449E0,5.7702436E0,8.3488725E-2,-3.0563376E-3,-3.195263E-2,3.4766242E-2,-3.5031922E-2,4.254296E-2,-1.9023564E-2,6.2463712E-2,-4.989041E-2,-4.1158188E-2,-3.7712898E-2,2.0156074E-2,-2.107179E-3,-3.6652554E-2,-3.752842E-2,2.3708168E-1,1.0137253E-1,-1.9070951E-2,2.328692E-3,-3.710456E-2,8.1696445E-3,6.69564E-2,6.884442E-2,3.4905195E-2,-4.228383E-2,1.4898548E-2,-5.8295347E-2,3.6934603E-2,2.8806109E-2,7.2748E-2,4.3416046E-2,8.321308E-2],"split_indices":[76,17,77,97,94,93,74,163,74,76,77,91,81,93,78,80,160,18,81,74,71,194,74,142,78,76,80,63,74,76,97,0,0,0,0,0,0,0,0,0,0,0,0,0,0,0,0,0,0,0,0,0,0,0,0,0,0,0,0,0,0,0,0],"split_type":[0,0,0,0,0,0,0,0,0,0,0,0,0,0,0,0,0,0,0,0,0,0,0,0,0,0,0,0,0,0,0,0,0,0,0,0,0,0,0,0,0,0,0,0,0,0,0,0,0,0,0,0,0,0,0,0,0,0,0,0,0,0,0],"sum_hessian":[1.2166218E5,8.800299E4,3.365919E4,2.578246E4,6.2220527E4,1.1359012E4,2.2300178E4,3.5304531E3,2.2252008E4,4.9289355E4,1.2931171E4,1.7773522E3,9.58166E3,3.5876206E3,1.8712557E4,1.2013909E3,2.3290623E3,1.1709666E4,1.0542343E4,4.871871E4,5.706467E2,1.285704E4,7.4130875E1,1.5034201E2,1.6270101E3,3.3728083E3,6.2088516E3,1.1954713E3,2.3921494E3,1.1638616E4,7.073941E3,6.5565735E2,5.457335E2,1.8124896E3,5.165727E2,1.1603415E4,1.06250275E2,1.0289864E4,2.5247876E2,3.443082E4,1.4287888E4,2.2440788E2,3.4623886E2,7.825408E2,1.2074499E4,4.1894794E1,3.2236084E1,1.1942186E2,3.0920155E1,7.5130536E2,8.7570483E2,3.0293455E3,3.4346283E2,1.5698059E3,4.639046E3,3.7975812E2,8.1571326E2,1.07415085E2,2.2847344E3,1.0788326E3,1.0559783E4,6.0879E3,9.86041E2],"tree_param":{"num_deleted":"0","num_feature":"225","num_nodes":"63","size_leaf_vector":"1"}},{"base_weights":[-2.9071173E-1,-7.42956E-1,8.481185E-1,-8.5947835E-1,-3.9313403E-1,5.9750867E-1,1.145086E0,-9.771932E-1,-7.4949765E-1,-7.5221926E-1,-2.977515E-1,3.7204367E-1,8.9887345E-1,3.1639293E-1,1.2034022E0,-9.8610425E-1,1.0625254E-2,-8.0383605E-1,-4.785442E-1,1.6679803E-1,-8.043804E-1,2.2422211E-2,-4.4325742E-1,2.3614269E-2,5.682582E-1,6.9397295E-1,1.3189683E0,-3.001658E-3,1.304909E0,1.2580831E0,7.531616E-1,-4.955037E-2,4.172363E-2,-4.860848E-2,7.07854E-2,-4.114332E-2,7.1225623E-3,-2.635079E-2,6.1479207E-2,-3.437445E-2,9.6466E-2,-4.123283E-2,5.1847853E-2,2.1815246E-2,-1.606391E-2,5.823588E-3,-2.7518278E-2,-1.1651772E-2,2.3444502E-2,3.3145633E-2,-1.2865655E-2,3.8516384E-2,-2.0680113E-2,7.86125E-2,3.420696E-2,2.4710072E-2,-3.1076422E-2,-3.0020598E-2,8.693818E-2,6.393138E-2,1.1665327E-2,4.303375E-3,5.2128088E-2],"categories":[],"categories_nodes":[],"categories_segments":[],"categories_sizes":[],"default_left":[0,0,0,0,0,0,0,0,0,0,0,0,0,0,0,0,0,0,0,0,0,0,0,0,0,0,0,0,0,0,0,0,0,0,0,0,0,0,0,0,0,0,0,0,0,0,0,0,0,0,0,0,0,0,0,0,0,0,0,0,0,0,0],"id":13,"left_children":[1,3,5,7,9,11,13,15,17,19,21,23,25,27,29,31,33,35,37,39,41,43,45,47,49,51,53,55,57,59,61,-1,-1,-1,-1,-1,-1,-1,-1,-1,-1,-1,-1,-1,-1,-1,-1,-1,-1,-1,-1,-1,-1,-1,-1,-1,-1,-1,-1,-1,-1,-1,-1],"loss_changes":[6.1410484E4,3.478504E3,2.5216445E3,8.2808984E2,7.3021533E2,1.2487129E3,7.49166E2,2.721797E2,4.869707E2,2.1466577E2,7.851029E2,7.1901514E2,6.76208E2,3.2238214E2,3.5579102E2,2.7435938E2,3.8446307E2,4.9660938E2,4.586637E2,3.6448825E2,1.5897339E2,7.4931635E2,6.946968E2,4.3322903E2,5.259392E2,4.476504E2,4.13417E2,2.379439E2,2.0716394E2,2.7169922E2,3.033405E2,0E0,0E0,0E0,0E0,0E0,0E0,0E0,0E0,0E0,0E0,0E0,0E0,0E0,0E0,0E0,0E0,0E0,0E0,0E0,0E0,0E0,0E0,0E0,0E0,0E0,0E0,0E0,0E0,0E0,0E0,0E0,0E0],"parents":[2147483647,0,0,1,1,2,2,3,3,4,4,5,5,6,6,7,7,8,8,9,9,10,10,11,11,12,12,13,13,14,14,15,15,16,16,17,17,18,18,19,19,20,20,21,21,22,22,23,23,24,24,25,25,26,26,27,27,28,28,29,29,30,30],"right_children":[2,4,6,8,10,12,14,16,18,20,22,24,26,28,30,32,34,36,38,40,42,44,46,48,50,52,54,56,58,60,62,-1,-1,-1,-1,-1,-1,-1,-1,-1,-1,-1,-1,-1,-1,-1,-1,-1,-1,-1,-1,-1,-1,-1,-1,-1,-1,-1,-1,-1,-1,-1,-1],"split_conditions":[6.407593E-1,7.2858864E-1,1.2244805E0,-4.1765514E-1,-8.6835724E-1,1.9271426E0,8.965195E-1,1.5921471E0,-3.4329478E-2,-1.9756755E0,-1.068227E0,-1.6114597E-1,6.640981E-2,2.505921E0,-2.6858398E-1,1.8850176E0,3.5580584E-1,4.9820444E-1,1.742302E0,8.731581E-2,2.1055686E0,1.0233318E0,-2.917907E0,3.1148604E-1,2.8729868E0,4.7054906E0,3.1157995E-2,2.7091846E-2,1.7527856E0,5.0149436E0,1.8752242E0,-4.955037E-2,4.172363E-2,-4.860848E-2,7.07854E-2,-4.114332E-2,7.1225623E-3,-2.635079E-2,6.1479207E-2,-3.437445E-2,9.6466E-2,-4.123283E-2,5.1847853E-2,2.1815246E-2,-1.606391E-2,5.823588E-3,-2.7518278E-2,-1.1651772E-2,2.3444502E-2,3.3145633E-2,-1.2865655E-2,3.8516384E-2,-2.0680113E-2,7.86125E-2,3.420696E-2,2.4710072E-2,-3.1076422E-2,-3.0020598E-2,8.693818E-2,6.393138E-2,1.1665327E-2,4.303375E-3,5.2128088E-2],"split_indices":[76,71,79,71,1,81,76,108,92,97,17,45,94,77,91,81,68,76,100,212,111,75,97,62,80,80,154,78,81,77,81,0,0,0,0,0,0,0,0,0,0,0,0,0,0,0,0,0,0,0,0,0,0,0,0,0,0,0,0,0,0,0,0],"split_type":[0,0,0,0,0,0,0,0,0,0,0,0,0,0,0,0,0,0,0,0,0,0,0,0,0,0,0,0,0,0,0,0,0,0,0,0,0,0,0,0,0,0,0,0,0,0,0,0,0,0,0,0,0,0,0,0,0,0,0,0,0,0,0],"sum_hessian":[1.1923463E5,8.5343836E4,3.3890793E4,6.4018438E4,2.1325398E4,1.8381621E4,1.5509173E4,3.091816E4,3.3100277E4,4.4742754E3,1.6851123E4,1.0516198E4,7.865423E3,1.02006744E3,1.44891045E4,3.0641742E4,2.7641656E2,2.7569402E4,5.5308774E3,2.4019147E2,4.234084E3,5.265555E3,1.1585568E4,3.788991E3,6.7272075E3,5.2885796E3,2.5768433E3,7.717183E2,2.4834915E2,1.2918394E4,1.5707118E3,3.0559896E4,8.184725E1,1.6283124E2,1.1358532E2,2.7026025E4,5.4337683E2,5.3789307E3,1.5194653E2,1.6218904E2,7.800242E1,4.1885137E3,4.557047E1,2.3887554E3,2.8767996E3,1.8608723E3,9.724696E3,2.4038992E3,1.3850918E3,6.035424E3,6.917836E2,4.9477905E3,3.407891E2,1.8408938E3,7.3594934E2,4.2792865E2,3.4378967E2,4.5990925E1,2.0235823E2,1.2664255E4,2.5413853E2,4.7563245E2,1.0950793E3],"tree_param":{"num_deleted":"0","num_feature":"225","num_nodes":"63","size_leaf_vector":"1"}},{"base_weights":[-2.8075293E-1,-7.451623E-1,7.7084917E-1,-8.741991E-1,-4.4021615E-1,4.1910496E-1,9.697378E-1,-9.464318E-1,-7.1563303E-1,6.7439035E-2,-5.0939566E-1,-1.332239E-1,5.790533E-1,4.3406522E-1,1.1072842E0,-9.884548E-1,-8.111627E-1,-9.2295074E-1,-6.051521E-1,-3.5310528E-1,1.1371521E0,-5.171898E-1,2.0047419E-1,9.312034E-2,-6.863726E-1,7.5233765E-2,6.943514E-1,-5.4377276E-2,6.439402E-1,1.2307079E0,8.471303E-1,-4.9758162E-2,-2.4558785E-3,-1.7764304E-2,-4.4275798E-2,-4.6964154E-2,6.114325E-2,-1.3117591E-2,-3.8772363E-2,3.5894387E-3,-4.279038E-2,1.5511639E-2,1.1094829E-1,-1.2141684E-2,-3.1375285E-2,-4.1012943E-2,1.3647367E-2,-4.9173605E-2,-1.7434368E-2,-2.686367E-2,1.7965822E-2,8.818563E-3,4.208748E-2,-4.314432E-2,1.26218945E-2,-5.5179495E-2,3.5492625E-2,1.1927999E-2,6.394036E-2,-2.311562E-3,4.7837805E-2],"categories":[],"categories_nodes":[],"categories_segments":[],"categories_sizes":[],"default_left":[0,0,0,0,0,0,0,0,0,0,0,0,0,0,0,0,0,0,0,0,0,0,0,0,0,0,0,0,0,0,0,0,0,0,0,0,0,0,0,0,0,0,0,0,0,0,0,0,0,0,0,0,0,0,0,0,0,0,0,0,0],"id":14,"left_children":[1,3,5,7,9,11,13,15,17,19,21,23,25,27,29,31,33,35,37,39,41,43,-1,45,47,49,51,53,55,57,59,-1,-1,-1,-1,-1,-1,-1,-1,-1,-1,-1,-1,-1,-1,-1,-1,-1,-1,-1,-1,-1,-1,-1,-1,-1,-1,-1,-1,-1,-1],"loss_changes":[5.7149E4,3.1936523E3,2.5073965E3,6.5258984E2,8.477041E2,1.1441155E3,1.6866758E3,2.2192578E2,4.083916E2,1.3030226E3,7.502456E2,3.6425275E2,5.832815E2,4.7979736E2,5.839668E2,1.8830664E2,3.1467334E2,2.186123E2,6.799121E2,4.441771E2,7.305028E2,6.416821E2,0E0,3.3940857E2,8.440866E1,3.2579376E2,6.2376025E2,3.4936328E2,3.7784668E2,5.892832E2,5.7450146E2,0E0,0E0,0E0,0E0,0E0,0E0,0E0,0E0,0E0,0E0,0E0,0E0,0E0,0E0,0E0,0E0,0E0,0E0,0E0,0E0,0E0,0E0,0E0,0E0,0E0,0E0,0E0,0E0,0E0,0E0],"parents":[2147483647,0,0,1,1,2,2,3,3,4,4,5,5,6,6,7,7,8,8,9,9,10,10,11,11,12,12,13,13,14,14,15,15,16,16,17,17,18,18,19,19,20,20,21,21,23,23,24,24,25,25,26,26,27,27,28,28,29,29,30,30],"right_children":[2,4,6,8,10,12,14,16,18,20,22,24,26,28,30,32,34,36,38,40,42,44,-1,46,48,50,52,54,56,58,60,-1,-1,-1,-1,-1,-1,-1,-1,-1,-1,-1,-1,-1,-1,-1,-1,-1,-1,-1,-1,-1,-1,-1,-1,-1,-1,-1,-1,-1,-1],"split_conditions":[4.9820444E-1,5.454523E-1,9.856233E-1,-3.904067E-2,-2.917907E0,-6.8070483E-1,-2.6961264E-1,-1.7014726E-1,-8.512058E-1,2.0635517E-1,2.7181773E0,1.6193986E-1,-2.8803077E-1,-1.7119808E-2,1.6513175E0,1.5921471E0,-5.1291794E-1,8.61256E-1,4.2921755E-1,2.675908E-1,1.6531754E-1,-1.1000704E0,2.0047419E-1,-5.524127E-1,-5.8903605E-1,-4.151716E-1,1.6801369E0,-5.839922E-1,-8.0521727E-1,1.6888927E0,1.8752242E0,-4.9758162E-2,-2.4558785E-3,-1.7764304E-2,-4.4275798E-2,-4.6964154E-2,6.114325E-2,-1.3117591E-2,-3.8772363E-2,3.5894387E-3,-4.279038E-2,1.5511639E-2,1.1094829E-1,-1.2141684E-2,-3.1375285E-2,-4.1012943E-2,1.3647367E-2,-4.9173605E-2,-1.7434368E-2,-2.686367E-2,1.7965822E-2,8.818563E-3,4.208748E-2,-4.314432E-2,1.26218945E-2,-5.5179495E-2,3.5492625E-2,1.1927999E-2,6.394036E-2,-2.311562E-3,4.7837805E-2],"split_indices":[76,71,77,94,97,1,74,74,1,159,18,171,71,93,80,108,118,138,82,19,121,17,0,74,0,0,81,63,74,81,81,0,0,0,0,0,0,0,0,0,0,0,0,0,0,0,0,0,0,0,0,0,0,0,0,0,0,0,0,0,0],"split_type":[0,0,0,0,0,0,0,0,0,0,0,0,0,0,0,0,0,0,0,0,0,0,0,0,0,0,0,0,0,0,0,0,0,0,0,0,0,0,0,0,0,0,0,0,0,0,0,0,0,0,0,0,0,0,0,0,0,0,0,0,0],"sum_hessian":[1.1701678E5,8.117049E4,3.584629E4,5.703464E4,2.4135852E4,1.2948806E4,2.2897482E4,3.9181188E4,1.7853455E4,2.8946033E3,2.1241248E4,2.9078096E3,1.0040996E4,4.6790684E3,1.8218414E4,2.9889373E4,9.291813E3,6.2040977E3,1.1649357E4,2.0782393E3,8.163639E2,2.1205559E4,3.5689873E1,2.0640483E3,8.437613E2,1.8702399E3,8.170756E3,1.4064878E3,3.2725808E3,1.2353746E4,5.864668E3,2.9677367E4,2.1200545E2,1.3037849E3,7.988029E3,6.1577915E3,4.6306046E1,3.867238E3,7.782119E3,1.1267472E3,9.514921E2,4.6342035E2,3.5294357E2,6.082229E3,1.5123329E4,3.389399E2,1.7251084E3,4.4783673E2,3.9592456E2,5.9229926E2,1.2779406E3,1.8105168E3,6.360239E3,3.8641293E2,1.0200748E3,1.1837471E2,3.154206E3,5.714911E2,1.1782255E4,6.410672E2,5.2236006E3],"tree_param":{"num_deleted":"0","num_feature":"225","num_nodes":"61","size_leaf_vector":"1"}},{"base_weights":[-2.747724E-1,-7.0028794E-1,7.119044E-1,-3.5861063E-1,-8.6010116E-1,4.2814028E-1,1.0019838E0,1.9294655E-1,-4.5038652E-1,-9.428966E-1,-6.948276E-1,-4.6501666E-2,6.371618E-1,5.294087E-1,1.0580723E0,1.0806116E0,-1.5220454E-1,-6.912796E-1,-2.936989E-1,-9.509411E-1,1.2829544E-2,-7.803232E-1,-4.040913E-1,7.0327055E-1,-1.4319776E-1,-6.391418E-2,7.261115E-1,6.625156E-1,-8.1091547E-1,4.0158054E-1,1.094513E0,-5.1492274E-2,6.7722805E-2,-1.3993019E-2,1.7957549E-1,-3.574373E-2,5.5828203E-2,-1.628105E-2,6.454552E-2,-4.797037E-2,-2.1520313E-2,5.0516468E-2,-4.7826733E-2,-3.989668E-2,9.64442E-3,-3.263187E-2,2.3011811E-2,-1.728673E-2,5.852371E-2,-2.353303E-2,2.6681765E-3,1.5856074E-2,-3.8451966E-2,1.5245238E-2,4.307919E-2,8.735837E-3,4.9224753E-2,-5.4202326E-2,2.379464E-2,-1.5716998E-2,3.9987966E-2,6.1707567E-2,4.6097066E-2],"categories":[],"categories_nodes":[],"categories_segments":[],"categories_sizes":[],"default_left":[0,0,0,0,0,0,0,0,0,0,0,0,0,0,0,0,0,0,0,0,0,0,0,0,0,0,0,0,0,0,0,0,0,0,0,0,0,0,0,0,0,0,0,0,0,0,0,0,0,0,0,0,0,0,0,0,0,0,0,0,0,0,0],"id":15,"left_children":[1,3,5,7,9,11,13,15,17,19,21,23,25,27,29,31,33,35,37,39,41,43,45,47,49,51,53,55,57,59,61,-1,-1,-1,-1,-1,-1,-1,-1,-1,-1,-1,-1,-1,-1,-1,-1,-1,-1,-1,-1,-1,-1,-1,-1,-1,-1,-1,-1,-1,-1,-1,-1],"loss_changes":[4.8170676E4,4.3769336E3,2.8452773E3,1.2932998E3,7.467031E2,1.7339907E3,4.525547E2,1.11699E3,8.2653955E2,2.7975E2,4.5288184E2,3.8757687E2,7.567363E2,3.244632E2,3.6510352E2,5.912848E2,1.2557808E3,3.6898096E2,6.718191E2,1.5859375E2,2.9557797E2,2.4160449E2,8.908015E2,2.9970624E2,3.047876E2,3.6755646E2,6.141797E2,2.5932294E2,5.8322823E1,2.2976846E2,3.4769336E2,0E0,0E0,0E0,0E0,0E0,0E0,0E0,0E0,0E0,0E0,0E0,0E0,0E0,0E0,0E0,0E0,0E0,0E0,0E0,0E0,0E0,0E0,0E0,0E0,0E0,0E0,0E0,0E0,0E0,0E0,0E0,0E0],"parents":[2147483647,0,0,1,1,2,2,3,3,4,4,5,5,6,6,7,7,8,8,9,9,10,10,11,11,12,12,13,13,14,14,15,15,16,16,17,17,18,18,19,19,20,20,21,21,22,22,23,23,24,24,25,25,26,26,27,27,28,28,29,29,30,30],"right_children":[2,4,6,8,10,12,14,16,18,20,22,24,26,28,30,32,34,36,38,40,42,44,46,48,50,52,54,56,58,60,62,-1,-1,-1,-1,-1,-1,-1,-1,-1,-1,-1,-1,-1,-1,-1,-1,-1,-1,-1,-1,-1,-1,-1,-1,-1,-1,-1,-1,-1,-1,-1,-1],"split_conditions":[1.6888927E0,-7.044196E-1,2.0386223E-1,-2.917907E0,-1.7014726E-1,1.8472289E0,-3.6754778E-1,-2.4627252E-1,5.00958E-1,1.5921471E0,-3.6191594E-2,-1.4796145E0,-7.5094E-1,8.670151E-1,-8.2975787E-1,-2.1157627E-1,3.4906483E0,2.7181773E0,1.3617213E0,2.2642405E0,-5.0529575E-1,2.5090632E0,4.7422084E-1,-3.305454E-2,2.2961952E-1,7.4098253E-1,-6.007756E-1,9.178082E-1,1.7950258E0,-3.9012812E-2,4.1142875E-1,-5.1492274E-2,6.7722805E-2,-1.3993019E-2,1.7957549E-1,-3.574373E-2,5.5828203E-2,-1.628105E-2,6.454552E-2,-4.797037E-2,-2.1520313E-2,5.0516468E-2,-4.7826733E-2,-3.989668E-2,9.64442E-3,-3.263187E-2,2.3011811E-2,-1.728673E-2,5.852371E-2,-2.353303E-2,2.6681765E-3,1.5856074E-2,-3.8451966E-2,1.5245238E-2,4.307919E-2,8.735837E-3,4.9224753E-2,-5.4202326E-2,2.379464E-2,-1.5716998E-2,3.9987966E-2,6.1707567E-2,4.6097066E-2],"split_indices":[81,17,74,97,74,81,135,163,74,108,92,19,74,96,1,108,47,18,113,78,65,51,51,143,78,90,1,74,74,146,98,0,0,0,0,0,0,0,0,0,0,0,0,0,0,0,0,0,0,0,0,0,0,0,0,0,0,0,0,0,0,0,0],"split_type":[0,0,0,0,0,0,0,0,0,0,0,0,0,0,0,0,0,0,0,0,0,0,0,0,0,0,0,0,0,0,0,0,0,0,0,0,0,0,0,0,0,0,0,0,0,0,0,0,0,0,0,0,0,0,0,0,0,0,0,0,0,0,0],"sum_hessian":[1.1473187E5,8.016157E4,3.4570293E4,2.5546639E4,5.461493E4,1.7476623E4,1.7093672E4,3.6442468E3,2.1902393E4,3.6383535E4,1.8231395E4,5.343495E3,1.2133127E4,1.8146632E3,1.5279009E4,1.019682E3,2.624565E3,8.630446E3,1.3271945E4,3.607985E4,3.036842E2,1.408716E4,4.1442354E3,6.096962E2,4.733799E3,1.3661116E3,1.0767016E4,1.6511901E3,1.6347313E2,8.0414124E2,1.4474868E4,1.1679659E2,9.028854E2,2.5389165E3,8.564853E1,8.5198545E3,1.10591774E2,1.301064E4,2.613057E2,3.550159E4,5.782617E2,1.496492E2,1.54035E2,1.383696E4,2.5020052E2,3.2188635E3,9.253717E2,1.879515E2,4.217447E2,1.7751235E3,2.9586753E3,8.8722375E2,4.7888788E2,2.6210308E3,8.145985E3,6.571502E2,9.9403986E2,1.3498045E2,2.8492664E1,2.8747513E2,5.166661E2,7.997472E3,6.477396E3],"tree_param":{"num_deleted":"0","num_feature":"225","num_nodes":"63","size_leaf_vector":"1"}},{"base_weights":[-2.5981134E-1,-6.815984E-1,6.795285E-1,-8.254503E-1,-2.8095806E-1,1.7636289E-1,8.3913875E-1,-9.5651746E-1,-7.016836E-1,-5.851695E-1,-1.5802076E-1,-3.3977088E-1,3.550071E-1,3.995588E-1,9.829385E-1,-9.659556E-1,-8.859067E-3,-7.8847533E-1,-4.9410522E-1,1.7548928E0,-6.056724E-1,-3.5165775E-1,1.3822632E-1,9.652549E-1,-4.667792E-1,-2.337832E-1,5.108775E-1,-2.433736E-1,4.9102247E-1,6.289582E-1,1.0599383E0,-4.8589095E-2,2.5890556E-3,6.1811298E-2,-5.0029762E-2,-3.97896E-2,9.187171E-2,-2.5622342E-2,1.3264833E-1,2.3716187E-1,-4.1614402E-2,-3.5299342E-2,-1.191879E-2,-2.0012775E-2,2.280852E-2,-5.7904082E-3,3.489079E-2,-3.5147958E-2,7.467457E-2,-2.6179234E-2,7.9323575E-2,1.6963981E-2,-2.773214E-2,4.0238746E-2,9.839797E-3,3.488455E-2,-2.3789944E-2,3.796895E-2,1.3992253E-2,1.7427431E-2,6.3523926E-2,5.729583E-2,3.8462166E-2],"categories":[],"categories_nodes":[],"categories_segments":[],"categories_sizes":[],"default_left":[0,0,0,0,0,0,0,0,0,0,0,0,0,0,0,0,0,0,0,0,0,0,0,0,0,0,0,0,0,0,0,0,0,0,0,0,0,0,0,0,0,0,0,0,0,0,0,0,0,0,0,0,0,0,0,0,0,0,0,0,0,0,0],"id":16,"left_children":[1,3,5,7,9,11,13,15,17,19,21,23,25,27,29,31,33,35,37,39,41,43,45,47,49,51,53,55,57,59,61,-1,-1,-1,-1,-1,-1,-1,-1,-1,-1,-1,-1,-1,-1,-1,-1,-1,-1,-1,-1,-1,-1,-1,-1,-1,-1,-1,-1,-1,-1,-1,-1],"loss_changes":[4.4709633E4,4.4880234E3,2.8082158E3,9.288594E2,7.6943225E2,7.767112E2,1.6777051E3,2.4888477E2,5.3063965E2,2.8517175E2,8.4075195E2,3.594861E2,5.743882E2,3.8502502E2,5.4454297E2,1.6342773E2,3.4132645E2,4.0076953E2,5.031482E2,4.0357935E2,2.1614722E2,3.4812708E2,8.2367145E2,1.7063248E2,2.3115091E2,2.4114594E2,4.5657117E2,1.787822E2,3.2454553E2,6.4287756E2,4.0970312E2,0E0,0E0,0E0,0E0,0E0,0E0,0E0,0E0,0E0,0E0,0E0,0E0,0E0,0E0,0E0,0E0,0E0,0E0,0E0,0E0,0E0,0E0,0E0,0E0,0E0,0E0,0E0,0E0,0E0,0E0,0E0,0E0],"parents":[2147483647,0,0,1,1,2,2,3,3,4,4,5,5,6,6,7,7,8,8,9,9,10,10,11,11,12,12,13,13,14,14,15,15,16,16,17,17,18,18,19,19,20,20,21,21,22,22,23,23,24,24,25,25,26,26,27,27,28,28,29,29,30,30],"right_children":[2,4,6,8,10,12,14,16,18,20,22,24,26,28,30,32,34,36,38,40,42,44,46,48,50,52,54,56,58,60,62,-1,-1,-1,-1,-1,-1,-1,-1,-1,-1,-1,-1,-1,-1,-1,-1,-1,-1,-1,-1,-1,-1,-1,-1,-1,-1,-1,-1,-1,-1,-1,-1],"split_conditions":[1.6888927E0,7.993447E-1,1.8161176E-2,-3.7924033E-1,-2.6625478E-1,-2.8803077E-1,-2.6294243E-1,1.5921471E0,2.1846087E-1,-7.574231E-1,1.3755164E-1,-1.061074E0,-6.86846E-1,-7.274443E-1,5.6785303E-1,7.7543604E-1,-5.0529575E-1,4.7438416E0,4.4861526E0,-1.4355563E-1,-1.0914189E-1,3.7392585E0,2.9666743E-1,6.4687794E-1,2.8964968E0,4.296481E-1,7.3506546E-1,-8.4603685E-1,-1.2058373E-1,-2.389067E-1,1.9746044E0,-4.8589095E-2,2.5890556E-3,6.1811298E-2,-5.0029762E-2,-3.97896E-2,9.187171E-2,-2.5622342E-2,1.3264833E-1,2.3716187E-1,-4.1614402E-2,-3.5299342E-2,-1.191879E-2,-2.0012775E-2,2.280852E-2,-5.7904082E-3,3.489079E-2,-3.5147958E-2,7.467457E-2,-2.6179234E-2,7.9323575E-2,1.6963981E-2,-2.773214E-2,4.0238746E-2,9.839797E-3,3.488455E-2,-2.3789944E-2,3.796895E-2,1.3992253E-2,1.7427431E-2,6.3523926E-2,5.729583E-2,3.8462166E-2],"split_indices":[81,71,77,71,114,71,73,108,127,188,12,18,1,1,79,175,65,77,47,187,92,73,108,79,66,80,80,44,139,91,78,0,0,0,0,0,0,0,0,0,0,0,0,0,0,0,0,0,0,0,0,0,0,0,0,0,0,0,0,0,0,0,0],"split_type":[0,0,0,0,0,0,0,0,0,0,0,0,0,0,0,0,0,0,0,0,0,0,0,0,0,0,0,0,0,0,0,0,0,0,0,0,0,0,0,0,0,0,0,0,0,0,0,0,0,0,0,0,0,0,0,0,0,0,0,0,0,0,0],"sum_hessian":[1.1284355E5,7.787569E4,3.496786E4,5.730058E4,2.0575113E4,8.421497E3,2.6546361E4,2.7826258E4,2.9474318E4,5.920623E3,1.465449E4,2.1651387E3,6.256359E3,6.544459E3,2.0001902E4,2.7551836E4,2.7442163E2,2.078217E4,8.69215E3,5.0689503E1,5.8699336E3,8.861881E3,5.792609E3,1.9144261E2,1.973696E3,1.3094596E3,4.9468994E3,8.1485767E2,5.729601E3,3.5752183E3,1.6426684E4,2.7395053E4,1.5678378E2,1.21560616E2,1.5286101E2,2.072512E4,5.705043E1,8.642616E3,4.9533257E1,2.3134476E1,2.7555027E1,4.60996E3,1.2599736E3,8.359491E3,5.0238992E2,3.984552E3,1.8080571E3,4.596153E1,1.4548108E2,1.9212865E3,5.240952E1,4.699896E2,8.3947E2,2.5547578E3,2.3921414E3,1.6099692E2,6.538608E2,2.5220618E3,3.2075396E3,2.4888713E3,1.0863467E3,1.2674908E4,3.751776E3],"tree_param":{"num_deleted":"0","num_feature":"225","num_nodes":"63","size_leaf_vector":"1"}},{"base_weights":[-2.4724782E-1,-6.9297147E-1,6.6667104E-1,-3.830253E-1,-8.3071434E-1,4.587028E-1,9.2610794E-1,1.1277381E-1,-4.6669105E-1,-8.884784E-1,-5.815576E-1,2.7556482E-1,7.231929E-1,1.513317E-1,1.0050641E0,-2.668049E-1,8.1424415E-1,-6.764114E-1,-3.1901175E-1,-9.498727E-1,-7.489437E-1,-7.206929E-1,-2.6274338E-1,4.3858137E-2,5.094652E-1,8.695953E-1,1.9728702E-1,-3.6300904E-1,6.4287823E-1,1.0599025E0,5.7334536E-1,-3.2657992E-2,4.074416E-2,8.880988E-2,-6.304715E-3,-3.491193E-2,4.344646E-2,-1.7540602E-2,7.831644E-2,-4.830669E-2,-2.733149E-2,2.9896228E-2,-3.8274765E-2,-3.875656E-2,-1.2991765E-3,1.7841774E-1,-1.4779495E-2,-2.1019086E-2,8.715163E-3,1.96512E-2,6.2378448E-2,7.548166E-2,3.7157785E-2,-2.2010509E-2,2.0098744E-2,3.7066545E-2,-2.8807057E-2,-5.62478E-2,4.3468196E-2,5.5718254E-2,3.5185598E-2,-6.72678E-3,3.748314E-2],"categories":[],"categories_nodes":[],"categories_segments":[],"categories_sizes":[],"default_left":[0,0,0,0,0,0,0,0,0,0,0,0,0,0,0,0,0,0,0,0,0,0,0,0,0,0,0,0,0,0,0,0,0,0,0,0,0,0,0,0,0,0,0,0,0,0,0,0,0,0,0,0,0,0,0,0,0,0,0,0,0,0,0],"id":17,"left_children":[1,3,5,7,9,11,13,15,17,19,21,23,25,27,29,31,33,35,37,39,41,43,45,47,49,51,53,55,57,59,61,-1,-1,-1,-1,-1,-1,-1,-1,-1,-1,-1,-1,-1,-1,-1,-1,-1,-1,-1,-1,-1,-1,-1,-1,-1,-1,-1,-1,-1,-1,-1,-1],"loss_changes":[4.5223832E4,3.1855703E3,1.9632314E3,9.525344E2,7.4302734E2,9.784004E2,9.903994E2,8.831759E2,6.0826416E2,3.5855078E2,4.3124365E2,6.470275E2,6.361875E2,3.7914267E2,3.472881E2,9.0009937E2,1.053679E3,2.7440186E2,6.918463E2,1.9041602E2,2.8622705E2,2.5603247E2,3.7310535E2,3.6334302E2,5.1013757E2,5.22063E2,2.351988E2,1.7295746E2,3.0795657E2,2.521289E2,2.0708673E2,0E0,0E0,0E0,0E0,0E0,0E0,0E0,0E0,0E0,0E0,0E0,0E0,0E0,0E0,0E0,0E0,0E0,0E0,0E0,0E0,0E0,0E0,0E0,0E0,0E0,0E0,0E0,0E0,0E0,0E0,0E0,0E0],"parents":[2147483647,0,0,1,1,2,2,3,3,4,4,5,5,6,6,7,7,8,8,9,9,10,10,11,11,12,12,13,13,14,14,15,15,16,16,17,17,18,18,19,19,20,20,21,21,22,22,23,23,24,24,25,25,26,26,27,27,28,28,29,29,30,30],"right_children":[2,4,6,8,10,12,14,16,18,20,22,24,26,28,30,32,34,36,38,40,42,44,46,48,50,52,54,56,58,60,62,-1,-1,-1,-1,-1,-1,-1,-1,-1,-1,-1,-1,-1,-1,-1,-1,-1,-1,-1,-1,-1,-1,-1,-1,-1,-1,-1,-1,-1,-1,-1,-1],"split_conditions":[4.9820444E-1,-7.044196E-1,1.2244805E0,-2.917907E0,-1.0149049E-4,1.9271426E0,8.965195E-1,1.1864673E-1,4.8269433E-1,-1.5319873E-1,4.0012294E-1,4.7686186E-2,1.4970627E-1,3.2115936E-1,-3.1544673E-1,1.2291532E-1,-1.423277E-2,2.7181773E0,1.5167642E0,1.1413852E0,-1.5520917E0,4.9427652E-1,-7.574231E-1,1.7181377E0,1.8555576E0,-6.1941737E-1,-1.8756019E-1,-2.7334788E-1,-3.0097803E-1,2.1133323E0,1.8516686E0,-3.2657992E-2,4.074416E-2,8.880988E-2,-6.304715E-3,-3.491193E-2,4.344646E-2,-1.7540602E-2,7.831644E-2,-4.830669E-2,-2.733149E-2,2.9896228E-2,-3.8274765E-2,-3.875656E-2,-1.2991765E-3,1.7841774E-1,-1.4779495E-2,-2.1019086E-2,8.715163E-3,1.96512E-2,6.2378448E-2,7.548166E-2,3.7157785E-2,-2.2010509E-2,2.0098744E-2,3.7066545E-2,-2.8807057E-2,-5.62478E-2,4.3468196E-2,5.5718254E-2,3.5185598E-2,-6.72678E-3,3.748314E-2],"split_indices":[76,17,79,97,94,81,76,160,74,74,51,45,154,74,90,199,123,18,113,78,104,148,188,81,74,125,150,195,78,78,81,0,0,0,0,0,0,0,0,0,0,0,0,0,0,0,0,0,0,0,0,0,0,0,0,0,0,0,0,0,0,0,0],"split_type":[0,0,0,0,0,0,0,0,0,0,0,0,0,0,0,0,0,0,0,0,0,0,0,0,0,0,0,0,0,0,0,0,0,0,0,0,0,0,0,0,0,0,0,0,0,0,0,0,0,0,0,0,0,0,0,0,0,0,0,0,0,0,0],"sum_hessian":[1.1101603E5,7.462246E4,3.6393574E4,2.2960654E4,5.166181E4,2.0202074E4,1.61915E4,3.3151123E3,1.9645541E4,4.193671E4,9.725097E3,1.193801E4,8.264065E3,1.4977174E3,1.4693782E4,2.1515098E3,1.1636024E3,8.116154E3,1.1529388E4,2.911882E4,1.2817891E4,6.769517E3,2.9555793E3,5.9977246E3,5.940285E3,6.4639644E3,1.8001006E3,7.320168E2,7.657006E2,1.3036397E4,1.6573844E3,1.5855741E3,5.659356E2,5.7475104E2,5.888514E2,8.0036543E3,1.1249951E2,1.1338946E4,1.9044145E2,2.7988754E4,1.1300657E3,1.5517993E2,1.266271E4,6.2774893E3,4.92028E2,2.4209696E1,2.9313696E3,1.3151232E3,4.6826016E3,5.132179E3,8.081059E2,1.0645032E3,5.3994614E3,4.372236E2,1.362877E3,1.18020004E2,6.1399677E2,8.650656E1,6.7919403E2,1.130561E4,1.7307875E3,3.3054517E2,1.3268392E3],"tree_param":{"num_deleted":"0","num_feature":"225","num_nodes":"63","size_leaf_vector":"1"}},{"base_weights":[-2.503843E-1,-6.612304E-1,6.126276E-1,-8.0874443E-1,-2.7588767E-1,-2.1514125E-2,7.27639E-1,-9.217124E-1,-6.591605E-1,-6.942326E-1,-1.8200126E-1,1.5135045E-1,-4.11948E-1,4.9695778E-1,9.563746E-1,-9.317705E-1,-3.8810402E-2,-4.4347635E-1,-7.495868E-1,2.2249602E-1,-7.495338E-1,1.17535084E-1,-3.3922827E-1,-7.431798E-2,7.970091E-1,-6.7329276E-1,1.11618966E-1,8.2614994E-1,3.4651804E-1,1.0522114E0,7.448821E-1,-4.8927106E-2,-3.7612792E-2,-4.3042343E-2,7.7623434E-2,1.2278599E-2,-2.7812064E-2,-4.1769058E-2,-2.8203135E-2,-5.044023E-2,7.249694E-2,-4.3599565E-2,-1.48605155E-2,2.6611691E-2,-8.805133E-3,1.3338254E-1,-1.7689418E-2,-1.1734881E-2,2.842003E-2,4.6191186E-2,-2.2738172E-2,-1.9661702E-2,-5.7080884E-2,-4.2331748E-2,2.5670076E-2,3.0598847E-2,6.904502E-2,2.9427452E-2,5.6028906E-3,3.9261058E-2,5.681023E-2,3.0532635E-3,4.4925343E-2],"categories":[],"categories_nodes":[],"categories_segments":[],"categories_sizes":[],"default_left":[0,0,0,0,0,0,0,0,0,0,0,0,0,0,0,0,0,0,0,0,0,0,0,0,0,0,0,0,0,0,0,0,0,0,0,0,0,0,0,0,0,0,0,0,0,0,0,0,0,0,0,0,0,0,0,0,0,0,0,0,0,0,0],"id":18,"left_children":[1,3,5,7,9,11,13,15,17,19,21,23,25,27,29,31,33,35,37,39,41,43,45,47,49,51,53,55,57,59,61,-1,-1,-1,-1,-1,-1,-1,-1,-1,-1,-1,-1,-1,-1,-1,-1,-1,-1,-1,-1,-1,-1,-1,-1,-1,-1,-1,-1,-1,-1,-1,-1],"loss_changes":[3.858072E4,4.1901133E3,2.5595547E3,9.0021875E2,8.014795E2,3.6375665E2,1.5669844E3,2.6965625E2,4.4709277E2,1.8979138E2,7.851022E2,5.4437476E2,2.2638684E2,7.322859E2,3.015244E2,2.51375E2,4.501627E2,5.268865E2,2.5678613E2,3.2424557E2,1.9514917E2,6.989118E2,4.795475E2,2.8557172E2,1.5402295E2,1.4426984E2,2.1278923E2,5.503279E2,5.761615E2,2.2922656E2,4.8890576E2,0E0,0E0,0E0,0E0,0E0,0E0,0E0,0E0,0E0,0E0,0E0,0E0,0E0,0E0,0E0,0E0,0E0,0E0,0E0,0E0,0E0,0E0,0E0,0E0,0E0,0E0,0E0,0E0,0E0,0E0,0E0,0E0],"parents":[2147483647,0,0,1,1,2,2,3,3,4,4,5,5,6,6,7,7,8,8,9,9,10,10,11,11,12,12,13,13,14,14,15,15,16,16,17,17,18,18,19,19,20,20,21,21,22,22,23,23,24,24,25,25,26,26,27,27,28,28,29,29,30,30],"right_children":[2,4,6,8,10,12,14,16,18,20,22,24,26,28,30,32,34,36,38,40,42,44,46,48,50,52,54,56,58,60,62,-1,-1,-1,-1,-1,-1,-1,-1,-1,-1,-1,-1,-1,-1,-1,-1,-1,-1,-1,-1,-1,-1,-1,-1,-1,-1,-1,-1,-1,-1,-1,-1],"split_conditions":[1.6888927E0,7.8134054E-1,-2.1041505E-1,-2.1141991E-1,-8.725217E-1,4.9436232E-1,2.505502E-1,1.5921471E0,-2.914464E-1,-1.9756755E0,-1.068227E0,6.1662793E-1,1.9271426E0,-8.4603685E-1,1.6513175E0,-3.5457723E-2,3.8427305E-1,-3.242968E0,1.9552366E-1,1.10885635E-1,4.806914E0,-7.688584E-1,-6.872146E-1,2.788137E-1,9.0457314E-1,1.8040261E0,-5.51286E-1,2.0591073E0,-4.6491516E-1,-6.8070483E-1,-2.6280138E-1,-4.8927106E-2,-3.7612792E-2,-4.3042343E-2,7.7623434E-2,1.2278599E-2,-2.7812064E-2,-4.1769058E-2,-2.8203135E-2,-5.044023E-2,7.249694E-2,-4.3599565E-2,-1.48605155E-2,2.6611691E-2,-8.805133E-3,1.3338254E-1,-1.7689418E-2,-1.1734881E-2,2.842003E-2,4.6191186E-2,-2.2738172E-2,-1.9661702E-2,-5.7080884E-2,-4.2331748E-2,2.5670076E-2,3.0598847E-2,6.904502E-2,2.9427452E-2,5.6028906E-3,3.9261058E-2,5.681023E-2,3.0532635E-3,4.4925343E-2],"split_indices":[81,71,77,71,1,78,73,108,118,97,17,74,81,44,80,94,120,97,127,121,97,81,206,78,50,80,19,8,90,1,6,0,0,0,0,0,0,0,0,0,0,0,0,0,0,0,0,0,0,0,0,0,0,0,0,0,0,0,0,0,0,0,0],"split_type":[0,0,0,0,0,0,0,0,0,0,0,0,0,0,0,0,0,0,0,0,0,0,0,0,0,0,0,0,0,0,0,0,0,0,0,0,0,0,0,0,0,0,0,0,0,0,0,0,0,0,0,0,0,0,0,0,0,0,0,0,0,0,0],"sum_hessian":[1.08809266E5,7.371614E4,3.5093125E4,5.3308043E4,2.0408096E4,5.3876875E3,2.9705438E4,3.03683E4,2.2939742E4,3.7394087E3,1.6668688E4,3.7347424E3,1.6529448E3,1.4791397E4,1.491404E4,3.0026186E4,3.421159E2,6.7782373E3,1.6161504E4,2.1257239E2,3.5268364E3,5.7377793E3,1.0930908E4,2.7681226E3,9.6661993E2,1.1023884E3,5.5055646E2,4.6380117E3,1.0153387E4,1.0260547E4,4.6534937E3,2.3816477E4,6.2097085E3,2.2588522E2,1.1623068E2,9.5310785E2,5.8251294E3,1.1048635E4,5.112869E3,1.0620836E2,1.0636404E2,2.7747112E3,7.5212506E2,2.3782341E3,3.3595452E3,5.179715E1,1.0879111E4,2.2158333E3,5.5228925E2,8.7793964E2,8.868033E1,6.9100586E2,4.113825E2,1.6231853E2,3.882379E2,3.3476748E3,1.2903368E3,4.9952886E3,5.1580977E3,2.457908E3,7.8026387E3,8.5391833E2,3.7995754E3],"tree_param":{"num_deleted":"0","num_feature":"225","num_nodes":"63","size_leaf_vector":"1"}},{"base_weights":[-2.3208806E-1,-6.6474634E-1,6.044847E-1,-8.671569E-1,-4.5475173E-1,4.0827107E-1,8.520904E-1,-8.906137E-1,-4.7205645E-1,-2.942125E-1,-6.4210755E-1,4.6163636E-1,-3.0756465E-1,1.3773951E-1,9.253103E-1,-7.514502E-1,-9.386031E-1,-7.0448107E-1,3.0297652E-1,-3.1177276E-1,2.0531921E0,-7.235709E-1,-2.3398727E-1,4.803501E-2,5.426016E-1,-4.0528926E-1,1.679709E0,-3.807532E-1,6.753111E-1,9.451403E-1,-8.89986E-2,-4.081231E-2,-3.2458832E-3,-4.2975903E-2,-4.9713638E-2,-4.2408656E-2,2.2349214E-2,-2.6872346E-2,9.014344E-2,-3.3227436E-2,-1.0422104E-2,1.0513249E-3,1.9377959E-1,-3.663113E-2,1.7805973E-1,-2.8884092E-2,3.4798797E-2,-1.8103145E-2,2.0304682E-2,4.0171845E-3,3.0505508E-2,-3.1812374E-2,1.9017125E-2,2.3292167E-2,1.3364595E-1,-6.4954096E-3,-4.960457E-2,-5.0568404E-3,7.036285E-2,4.8275795E-2,-1.8761896E-3,4.2767275E-2,-5.1064886E-2],"categories":[],"categories_nodes":[],"categories_segments":[],"categories_sizes":[],"default_left":[0,0,0,0,0,0,0,0,0,0,0,0,0,0,0,0,0,0,0,0,0,0,0,0,0,0,0,0,0,0,0,0,0,0,0,0,0,0,0,0,0,0,0,0,0,0,0,0,0,0,0,0,0,0,0,0,0,0,0,0,0,0,0],"id":19,"left_children":[1,3,5,7,9,11,13,15,17,19,21,23,25,27,29,31,33,35,37,39,41,43,45,47,49,51,53,55,57,59,61,-1,-1,-1,-1,-1,-1,-1,-1,-1,-1,-1,-1,-1,-1,-1,-1,-1,-1,-1,-1,-1,-1,-1,-1,-1,-1,-1,-1,-1,-1,-1,-1],"loss_changes":[3.8775277E4,3.0009023E3,1.7738496E3,3.327871E2,1.042252E3,7.785005E2,8.4427734E2,2.2593945E2,3.6355225E2,7.700968E2,5.3152637E2,6.349702E2,2.7532635E2,4.189242E2,2.946084E2,3.8728174E2,1.10228516E2,2.571646E2,5.8842474E2,6.75286E2,5.1371014E2,5.196377E2,8.5139905E2,4.5614117E2,4.9481738E2,2.4496497E2,7.890286E1,1.1722185E2,4.194624E2,2.876006E2,2.488824E2,0E0,0E0,0E0,0E0,0E0,0E0,0E0,0E0,0E0,0E0,0E0,0E0,0E0,0E0,0E0,0E0,0E0,0E0,0E0,0E0,0E0,0E0,0E0,0E0,0E0,0E0,0E0,0E0,0E0,0E0,0E0,0E0],"parents":[2147483647,0,0,1,1,2,2,3,3,4,4,5,5,6,6,7,7,8,8,9,9,10,10,11,11,12,12,13,13,14,14,15,15,16,16,17,17,18,18,19,19,20,20,21,21,22,22,23,23,24,24,25,25,26,26,27,27,28,28,29,29,30,30],"right_children":[2,4,6,8,10,12,14,16,18,20,22,24,26,28,30,32,34,36,38,40,42,44,46,48,50,52,54,56,58,60,62,-1,-1,-1,-1,-1,-1,-1,-1,-1,-1,-1,-1,-1,-1,-1,-1,-1,-1,-1,-1,-1,-1,-1,-1,-1,-1,-1,-1,-1,-1,-1,-1],"split_conditions":[4.9820444E-1,-1.6174969E-1,1.2244805E0,1.0836948E0,-7.044196E-1,7.173007E-1,8.965195E-1,-5.2500147E-1,-8.87861E-2,3.4906483E0,5.3790207E-3,-3.0791125E-1,4.9777336E0,4.485721E-1,1.1687714E0,1.1830142E0,3.1525186E-1,4.4239225E0,8.548684E-1,-9.63446E-1,1.9476019E-1,4.7438416E0,3.3276123E-1,1.20617926E-1,-2.4779005E-1,8.7717605E-1,5.5011377E-2,1.342576E-1,-5.6258984E-2,5.0149436E0,6.697631E-1,-4.081231E-2,-3.2458832E-3,-4.2975903E-2,-4.9713638E-2,-4.2408656E-2,2.2349214E-2,-2.6872346E-2,9.014344E-2,-3.3227436E-2,-1.0422104E-2,1.0513249E-3,1.9377959E-1,-3.663113E-2,1.7805973E-1,-2.8884092E-2,3.4798797E-2,-1.8103145E-2,2.0304682E-2,4.0171845E-3,3.0505508E-2,-3.1812374E-2,1.9017125E-2,2.3292167E-2,1.3364595E-1,-6.4954096E-3,-4.960457E-2,-5.0568404E-3,7.036285E-2,4.8275795E-2,-1.8761896E-3,4.2767275E-2,-5.1064886E-2],"split_indices":[76,74,79,78,17,91,76,65,76,47,92,146,77,74,66,52,17,78,79,2,160,77,51,114,221,66,92,89,77,77,78,0,0,0,0,0,0,0,0,0,0,0,0,0,0,0,0,0,0,0,0,0,0,0,0,0,0,0,0,0,0,0,0],"split_type":[0,0,0,0,0,0,0,0,0,0,0,0,0,0,0,0,0,0,0,0,0,0,0,0,0,0,0,0,0,0,0,0,0,0,0,0,0,0,0,0,0,0,0,0,0,0,0,0,0,0,0,0,0,0,0,0,0,0,0,0,0,0,0],"sum_hessian":[1.0712667E5,7.0609234E4,3.651744E4,3.5952266E4,3.4656965E4,2.0374467E4,1.6142975E4,3.393625E4,2.0160165E3,1.8665586E4,1.5991379E4,1.8961268E4,1.4132002E3,1.501069E3,1.4641905E4,8.706152E3,2.5230098E4,1.5509832E3,4.650333E2,1.8527852E4,1.3773445E2,1.3329879E4,2.6615002E3,3.1044004E3,1.5856866E4,1.3477218E3,6.547848E1,7.642422E2,7.3682684E2,1.4361209E4,2.806966E2,7.9551436E3,7.510084E2,1.0429801E4,1.4800297E4,1.3791426E3,1.7184062E2,2.984479E2,1.665854E2,4.1962427E3,1.4331608E4,6.559771E1,7.213675E1,1.3302605E4,2.7273026E1,1.9435751E3,7.1792505E2,1.44704E3,1.6573602E3,2.0209324E3,1.3835935E4,1.041681E3,3.0604077E2,3.0127163E1,3.535131E1,5.42752E2,2.2149014E2,3.5796234E2,3.788645E2,1.4069495E4,2.917138E2,1.3948851E2,1.412081E2],"tree_param":{"num_deleted":"0","num_feature":"225","num_nodes":"63","size_leaf_vector":"1"}},{"base_weights":[-2.3169006E-1,-6.5176183E-1,5.608108E-1,-8.208808E-1,-4.0176594E-1,2.8084427E-1,7.206619E-1,-9.080806E-1,-6.660312E-1,-5.2793145E-1,-1.567428E-1,-3.3134755E-1,3.8995746E-1,4.5187402E-1,8.6965847E-1,-9.3187857E-1,-6.0928786E-1,-8.855869E-1,-5.3565246E-1,-3.8846833E-1,-7.396579E-1,-2.6865834E-1,4.4725418E-1,1.1429653E0,-4.6484494E-1,5.686706E-1,1.3837889E-1,2.2707562E-1,8.0415523E-1,-9.4337426E-2,9.0706944E-1,-4.6843003E-2,4.361509E-3,1.9171339E-3,-3.6635663E-2,-4.5119256E-2,5.7323664E-2,-6.531001E-3,-3.5095647E-2,9.2949293E-4,-2.7983157E-2,-3.83111E-2,1.1321376E-2,-4.0865624E-3,-2.9947972E-2,1.0681533E-2,9.516472E-2,1.3732372E-1,1.8321918E-2,-3.459138E-2,4.9615786E-3,1.8257156E-3,3.3576176E-2,-1.3971046E-2,1.584952E-2,1.3467947E-2,-4.5370154E-2,5.3614516E-2,5.872659E-3,-5.5496275E-2,1.7354084E-2,4.6033625E-2,-3.1543594E-2],"categories":[],"categories_nodes":[],"categories_segments":[],"categories_sizes":[],"default_left":[0,0,0,0,0,0,0,0,0,0,0,0,0,0,0,0,0,0,0,0,0,0,0,0,0,0,0,0,0,0,0,0,0,0,0,0,0,0,0,0,0,0,0,0,0,0,0,0,0,0,0,0,0,0,0,0,0,0,0,0,0,0,0],"id":20,"left_children":[1,3,5,7,9,11,13,15,17,19,21,23,25,27,29,31,33,35,37,39,41,43,45,47,49,51,53,55,57,59,61,-1,-1,-1,-1,-1,-1,-1,-1,-1,-1,-1,-1,-1,-1,-1,-1,-1,-1,-1,-1,-1,-1,-1,-1,-1,-1,-1,-1,-1,-1,-1,-1],"loss_changes":[3.5026816E4,2.9069902E3,1.6310332E3,5.5323047E2,8.5775586E2,8.8515576E2,9.2879297E2,1.859961E2,4.2261328E2,5.405845E2,6.3778796E2,3.951062E2,5.0552283E2,6.552567E2,5.3837695E2,1.2344531E2,1.5497583E2,1.8895557E2,6.245554E2,7.697136E2,1.8682153E2,4.9137964E2,5.0135815E2,2.0662184E2,2.355304E2,3.5982666E2,3.4872437E2,2.4267575E2,5.934502E2,2.5076822E2,3.011787E2,0E0,0E0,0E0,0E0,0E0,0E0,0E0,0E0,0E0,0E0,0E0,0E0,0E0,0E0,0E0,0E0,0E0,0E0,0E0,0E0,0E0,0E0,0E0,0E0,0E0,0E0,0E0,0E0,0E0,0E0,0E0,0E0],"parents":[2147483647,0,0,1,1,2,2,3,3,4,4,5,5,6,6,7,7,8,8,9,9,10,10,11,11,12,12,13,13,14,14,15,15,16,16,17,17,18,18,19,19,20,20,21,21,22,22,23,23,24,24,25,25,26,26,27,27,28,28,29,29,30,30],"right_children":[2,4,6,8,10,12,14,16,18,20,22,24,26,28,30,32,34,36,38,40,42,44,46,48,50,52,54,56,58,60,62,-1,-1,-1,-1,-1,-1,-1,-1,-1,-1,-1,-1,-1,-1,-1,-1,-1,-1,-1,-1,-1,-1,-1,-1,-1,-1,-1,-1,-1,-1,-1,-1],"split_conditions":[4.9820444E-1,2.264631E-2,9.856233E-1,-5.430294E-2,3.3276123E-1,-1.7325982E-2,2.264631E-2,4.9932706E-1,-7.95935E-1,-7.044196E-1,-1.7739028E-2,-6.748975E-1,2.5139878E-2,2.3030221E-1,8.949407E-2,3.99964E0,-3.4673781E0,8.61256E-1,1.0233318E0,-1.4781649E0,1.4504405E0,-7.12015E-1,2.9556525E-1,-4.9729294E-1,1.0283532E0,-1.97855E-1,8.965195E-1,4.8581996E0,1.2858639E0,1.8472289E0,6.7067254E-1,-4.6843003E-2,4.361509E-3,1.9171339E-3,-3.6635663E-2,-4.5119256E-2,5.7323664E-2,-6.531001E-3,-3.5095647E-2,9.2949293E-4,-2.7983157E-2,-3.83111E-2,1.1321376E-2,-4.0865624E-3,-2.9947972E-2,1.0681533E-2,9.516472E-2,1.3732372E-1,1.8321918E-2,-3.459138E-2,4.9615786E-3,1.8257156E-3,3.3576176E-2,-1.3971046E-2,1.584952E-2,1.3467947E-2,-4.5370154E-2,5.3614516E-2,5.872659E-3,-5.5496275E-2,1.7354084E-2,4.6033625E-2,-3.1543594E-2],"split_indices":[76,73,77,94,51,93,73,127,1,17,92,91,112,108,79,77,97,138,75,97,70,17,218,79,79,221,76,80,98,81,92,0,0,0,0,0,0,0,0,0,0,0,0,0,0,0,0,0,0,0,0,0,0,0,0,0,0,0,0,0,0,0,0],"split_type":[0,0,0,0,0,0,0,0,0,0,0,0,0,0,0,0,0,0,0,0,0,0,0,0,0,0,0,0,0,0,0,0,0,0,0,0,0,0,0,0,0,0,0,0,0,0,0,0,0,0,0,0,0,0,0,0,0,0,0,0,0,0,0],"sum_hessian":[1.0521285E5,6.876406E4,3.644879E4,4.101539E4,2.7748668E4,1.3248261E4,2.320053E4,2.6236229E4,1.4779164E4,1.8316246E4,9.432422E3,2.0037815E3,1.12444795E4,8.275561E3,1.4924968E4,2.4298785E4,1.9374442E3,5.504267E3,9.274897E3,1.1044271E4,7.271974E3,7.9583594E3,1.4740618E3,1.6574722E2,1.8380342E3,6.5735703E3,4.670909E3,5.052863E3,3.222698E3,5.5751666E2,1.4367451E4,2.4180666E4,1.181174E2,3.1024335E2,1.6272008E3,5.45969E3,4.4576992E1,2.6997454E3,6.575152E3,3.2699773E3,7.7742944E3,7.0775713E3,1.9440298E2,5.082992E3,2.8753672E3,1.2712369E3,2.0282486E2,5.3250137E1,1.12497086E2,1.3104762E3,5.275581E2,1.0649453E3,5.508625E3,1.3986609E3,3.272248E3,4.872039E3,1.8082384E2,2.317304E3,9.0539417E2,1.6844804E2,3.890686E2,1.4241884E4,1.2556723E2],"tree_param":{"num_deleted":"0","num_feature":"225","num_nodes":"63","size_leaf_vector":"1"}},{"base_weights":[-2.2136125E-1,-6.3780284E-1,5.401339E-1,-8.401294E-1,-4.377655E-1,3.132858E-1,7.205168E-1,-9.272258E-1,-6.70534E-1,-1.5323344E-1,-5.326333E-1,5.209893E-2,4.6666086E-1,2.272249E-1,8.2049346E-1,-9.351164E-1,3.7856463E-1,-8.997644E-1,-5.612594E-1,-4.1353914E-1,2.7542394E-1,-6.7763823E-1,-2.382619E-1,-4.3109618E-2,8.0325705E-1,6.4499474E-1,1.4540532E-1,-8.7648594E-1,3.1655005E-1,3.9952424E-1,8.976143E-1,-3.3460733E-2,-4.8060104E-2,-5.377541E-2,1.7621174E-1,-4.6224054E-2,1.3581325E-1,-1.4874603E-2,-3.6568943E-2,-6.128331E-3,-3.4682143E-2,4.17322E-2,-1.8472126E-2,-3.4420334E-2,1.2137735E-1,-1.4887583E-2,3.7467945E-2,2.8709298E-2,-9.143759E-3,7.325338E-2,8.903745E-3,1.0240714E-3,3.7928056E-2,-5.9825063E-2,1.1173336E-2,2.445905E-2,-5.0462972E-2,-3.9991504E-3,2.7989328E-2,2.9127855E-2,-2.7004024E-2,4.0341742E-2,5.455513E-2],"categories":[],"categories_nodes":[],"categories_segments":[],"categories_sizes":[],"default_left":[0,0,0,0,0,0,0,0,0,0,0,0,0,0,0,0,0,0,0,0,0,0,0,0,0,0,0,0,0,0,0,0,0,0,0,0,0,0,0,0,0,0,0,0,0,0,0,0,0,0,0,0,0,0,0,0,0,0,0,0,0,0,0],"id":21,"left_children":[1,3,5,7,9,11,13,15,17,19,21,23,25,27,29,31,33,35,37,39,41,43,45,47,49,51,53,55,57,59,61,-1,-1,-1,-1,-1,-1,-1,-1,-1,-1,-1,-1,-1,-1,-1,-1,-1,-1,-1,-1,-1,-1,-1,-1,-1,-1,-1,-1,-1,-1,-1,-1],"loss_changes":[3.2782402E4,2.7043809E3,1.4952666E3,4.9012305E2,9.070576E2,6.48553E2,1.0038154E3,2.2649414E2,2.8195703E2,9.3791833E2,1.0756328E3,4.2849423E2,5.8428784E2,3.3864026E2,5.4917773E2,1.5067773E2,6.100368E2,3.2770776E2,3.425515E2,4.2613776E2,1.1456646E3,5.662656E2,4.889996E2,4.589291E2,2.7860345E2,4.6516553E2,3.8181192E2,4.7135864E1,3.063568E2,4.5135037E2,2.5038574E2,0E0,0E0,0E0,0E0,0E0,0E0,0E0,0E0,0E0,0E0,0E0,0E0,0E0,0E0,0E0,0E0,0E0,0E0,0E0,0E0,0E0,0E0,0E0,0E0,0E0,0E0,0E0,0E0,0E0,0E0,0E0,0E0],"parents":[2147483647,0,0,1,1,2,2,3,3,4,4,5,5,6,6,7,7,8,8,9,9,10,10,11,11,12,12,13,13,14,14,15,15,16,16,17,17,18,18,19,19,20,20,21,21,22,22,23,23,24,24,25,25,26,26,27,27,28,28,29,29,30,30],"right_children":[2,4,6,8,10,12,14,16,18,20,22,24,26,28,30,32,34,36,38,40,42,44,46,48,50,52,54,56,58,60,62,-1,-1,-1,-1,-1,-1,-1,-1,-1,-1,-1,-1,-1,-1,-1,-1,-1,-1,-1,-1,-1,-1,-1,-1,-1,-1,-1,-1,-1,-1,-1,-1],"split_conditions":[4.9820444E-1,-1.7014726E-1,9.295562E-1,-5.0517034E-2,-2.5849134E-1,1.8472289E0,-4.6411224E-2,3.99964E0,-8.512058E-1,-9.735864E-2,1.0674839E0,2.4744687E0,-3.9165607E-3,1.7579869E0,1.1816292E0,-5.194478E-1,1.6121209E0,7.632761E-1,-6.0090774E-1,-8.0404407E-1,1.1705906E0,4.717263E0,-3.8968712E-1,-2.6789215E0,1.1085786E-2,-5.4851216E-1,-6.7935175E-1,-1.1577654E0,1.3778743E0,5.607605E-1,1.8912737E-1,-3.3460733E-2,-4.8060104E-2,-5.377541E-2,1.7621174E-1,-4.6224054E-2,1.3581325E-1,-1.4874603E-2,-3.6568943E-2,-6.128331E-3,-3.4682143E-2,4.17322E-2,-1.8472126E-2,-3.4420334E-2,1.2137735E-1,-1.4887583E-2,3.7467945E-2,2.8709298E-2,-9.143759E-3,7.325338E-2,8.903745E-3,1.0240714E-3,3.7928056E-2,-5.9825063E-2,1.1173336E-2,2.445905E-2,-5.0462972E-2,-3.9991504E-3,2.7989328E-2,2.9127855E-2,-2.7004024E-2,4.0341742E-2,5.455513E-2],"split_indices":[76,74,79,94,104,81,71,77,1,92,73,74,44,81,76,128,81,187,81,17,7,77,91,97,141,102,124,71,79,99,146,0,0,0,0,0,0,0,0,0,0,0,0,0,0,0,0,0,0,0,0,0,0,0,0,0,0,0,0,0,0,0,0],"split_type":[0,0,0,0,0,0,0,0,0,0,0,0,0,0,0,0,0,0,0,0,0,0,0,0,0,0,0,0,0,0,0,0,0,0,0,0,0,0,0,0,0,0,0,0,0,0,0,0,0,0,0,0,0,0,0,0,0,0,0,0,0,0,0],"sum_hessian":[1.0337388E5,6.682773E4,3.6546152E4,3.3222164E4,3.3605562E4,1.6189326E4,2.0356828E4,2.1946812E4,1.1275351E4,8.403623E3,2.520194E4,5.990045E3,1.0199281E4,3.4310498E3,1.6925777E4,2.1815271E4,1.3154088E2,3.6375212E3,7.637829E3,5.228568E3,3.1750554E3,1.6883812E4,8.318127E3,5.3170557E3,6.7298895E2,6.557889E3,3.6413926E3,2.5623022E2,3.1748196E3,2.6216282E3,1.4304149E4,1.9513212E3,1.9863951E4,9.040818E1,4.11327E1,3.6135657E3,2.3955458E1,2.9957378E3,4.6420913E3,2.5652336E3,2.6633342E3,1.7002906E3,1.4747648E3,1.6826238E4,5.757327E1,7.846206E3,4.719212E2,9.810394E2,4.336016E3,3.2626514E2,3.4672385E2,1.00922675E3,5.548662E3,1.9939444E2,3.441998E3,2.2466152E1,2.3376408E2,1.2073024E3,1.9675172E3,2.1945205E3,4.271076E2,9.739713E3,4.5644375E3],"tree_param":{"num_deleted":"0","num_feature":"225","num_nodes":"63","size_leaf_vector":"1"}},{"base_weights":[-2.1515033E-1,-6.213506E-1,5.093978E-1,-7.512533E-1,-2.8681985E-1,3.3459958E-1,7.350714E-1,-8.670175E-1,-6.057709E-1,-3.1241828E-1,9.568136E-1,3.7535182E-1,-5.294941E-1,-1.8327341E-3,7.931988E-1,-5.9946203E-1,-9.041731E-1,-8.160759E-1,-4.8526365E-1,-3.1975722E-1,1.9922374E-1,3.1888587E0,-9.5978126E-2,1.1346256E-1,5.1307964E-1,-7.903926E-1,2.4902292E-1,-1.2795115E-1,1.4920919E0,1.840019E-1,8.3289486E-1,-4.370247E-2,-1.2730688E-2,-4.548204E-2,4.0350143E-2,-4.3191575E-2,-1.930133E-2,-6.111676E-3,-3.3452567E-2,-1.9519528E-2,5.2007413E-3,1.9742861E-1,1.8911008E-2,2.8461603E-2,-4.3641165E-2,1.7695433E-2,-1.3509701E-2,3.744427E-2,1.704553E-2,4.2980194E-2,-4.378101E-2,6.8544336E-2,-2.6141478E-2,-3.2131065E-2,1.280648E-2,2.9318258E-3,1.0288226E-1,-5.3942716E-3,6.5032244E-2,4.268378E-2,-6.690971E-3],"categories":[],"categories_nodes":[],"categories_segments":[],"categories_sizes":[],"default_left":[0,0,0,0,0,0,0,0,0,0,0,0,0,0,0,0,0,0,0,0,0,0,0,0,0,0,0,0,0,0,0,0,0,0,0,0,0,0,0,0,0,0,0,0,0,0,0,0,0,0,0,0,0,0,0,0,0,0,0,0,0],"id":22,"left_children":[1,3,5,7,9,11,13,15,17,19,21,23,25,27,29,31,33,35,37,39,-1,41,43,45,47,49,51,53,55,57,59,-1,-1,-1,-1,-1,-1,-1,-1,-1,-1,-1,-1,-1,-1,-1,-1,-1,-1,-1,-1,-1,-1,-1,-1,-1,-1,-1,-1,-1,-1],"loss_changes":[2.9916168E4,2.830213E3,1.4401855E3,7.895879E2,5.8031177E2,7.2485864E2,6.8266797E2,2.591543E2,5.2654346E2,5.6424915E2,8.643594E2,7.088025E2,1.8853262E2,2.1992242E2,3.5707812E2,3.0168567E2,2.1532812E2,1.5518652E2,8.8199365E2,5.3352856E2,0E0,2.5020837E2,1.3011378E2,6.250406E2,5.2261597E2,9.845056E1,2.0290997E2,2.1293471E2,7.3546234E1,2.951005E2,2.787129E2,0E0,0E0,0E0,0E0,0E0,0E0,0E0,0E0,0E0,0E0,0E0,0E0,0E0,0E0,0E0,0E0,0E0,0E0,0E0,0E0,0E0,0E0,0E0,0E0,0E0,0E0,0E0,0E0,0E0,0E0],"parents":[2147483647,0,0,1,1,2,2,3,3,4,4,5,5,6,6,7,7,8,8,9,9,10,10,11,11,12,12,13,13,14,14,15,15,16,16,17,17,18,18,19,19,21,21,22,22,23,23,24,24,25,25,26,26,27,27,28,28,29,29,30,30],"right_children":[2,4,6,8,10,12,14,16,18,20,22,24,26,28,30,32,34,36,38,40,-1,42,44,46,48,50,52,54,56,58,60,-1,-1,-1,-1,-1,-1,-1,-1,-1,-1,-1,-1,-1,-1,-1,-1,-1,-1,-1,-1,-1,-1,-1,-1,-1,-1,-1,-1,-1,-1],"split_conditions":[4.9820444E-1,7.2858864E-1,1.2244805E0,-6.470341E-2,2.6057553E0,1.2154582E0,8.210493E-1,-4.7732428E-1,-8.1557184E-1,2.7181773E0,-5.8913734E-2,1.8472289E0,8.7717605E-1,2.8262198E0,-4.7184107E-1,-3.557902E-1,4.2388477E0,1.1830142E0,1.0233318E0,1.4639946E0,1.9922374E-1,1.1229444E0,9.075791E-2,5.664463E-1,-4.8975518E-1,-5.35945E-1,-4.5122692E-1,-2.7638992E-2,1.4445676E-1,1.7013768E0,5.0149436E0,-4.370247E-2,-1.2730688E-2,-4.548204E-2,4.0350143E-2,-4.3191575E-2,-1.930133E-2,-6.111676E-3,-3.3452567E-2,-1.9519528E-2,5.2007413E-3,1.9742861E-1,1.8911008E-2,2.8461603E-2,-4.3641165E-2,1.7695433E-2,-1.3509701E-2,3.744427E-2,1.704553E-2,4.2980194E-2,-4.378101E-2,6.8544336E-2,-2.6141478E-2,-3.2131065E-2,1.280648E-2,2.9318258E-3,1.0288226E-1,-5.3942716E-3,6.5032244E-2,4.268378E-2,-6.690971E-3],"split_indices":[76,71,79,94,47,90,76,118,1,18,69,81,66,74,71,74,77,52,75,83,0,71,125,78,44,163,67,114,53,90,77,0,0,0,0,0,0,0,0,0,0,0,0,0,0,0,0,0,0,0,0,0,0,0,0,0,0,0,0,0,0],"split_type":[0,0,0,0,0,0,0,0,0,0,0,0,0,0,0,0,0,0,0,0,0,0,0,0,0,0,0,0,0,0,0,0,0,0,0,0,0,0,0,0,0,0,0,0,0,0,0,0,0,0,0,0,0,0,0,0,0,0,0,0,0],"sum_hessian":[1.0164585E5,6.5131566E4,3.6514285E4,4.6913273E4,1.8218293E4,2.0577904E4,1.5936382E4,2.61222E4,2.0791076E4,1.7851592E4,3.667013E2,1.9651662E4,9.2624225E2,1.1652328E3,1.4771149E4,3.1873523E3,2.2934846E4,7.571607E3,1.321947E4,1.7822078E4,2.9513885E1,1.1687765E2,2.4982364E2,6.773565E3,1.2878097E4,6.937394E2,2.3250285E2,1.075364E3,8.9868805E1,9.039693E2,1.386718E4,1.7735881E3,1.413764E3,2.2862264E4,7.25833E1,6.8139336E3,7.576733E2,4.443677E3,8.775793E3,1.527599E4,2.546087E3,9.168925E1,2.51884E1,1.347257E2,1.15097946E2,4.1639824E3,2.6095825E3,5.4332603E3,7.4448364E3,3.3627552E1,6.601118E2,9.444861E1,1.3805424E2,4.592686E2,6.160954E2,2.5737646E1,6.413116E1,7.173575E2,1.8661183E2,1.3575475E4,2.9170474E2],"tree_param":{"num_deleted":"0","num_feature":"225","num_nodes":"61","size_leaf_vector":"1"}},{"base_weights":[-2.1237E-1,-5.857558E-1,4.7998348E-1,-7.3947895E-1,-2.323543E-1,2.4961463E-1,6.932086E-1,-8.901859E-1,-6.058307E-1,-6.3998574E-1,-1.4603855E-1,-1.9791989E-1,3.4453937E-1,2.2960792E-1,7.934684E-1,-4.3166393E-1,-9.143527E-1,-3.5565618E-1,-7.061996E-1,-6.578274E-1,1.1044027E-1,4.3145467E-2,-3.685046E-1,6.3960594E-1,-3.231226E-1,-2.3235157E-1,4.1715175E-1,8.3775616E-1,-9.915452E-2,2.5996202E-1,8.490079E-1,8.479052E-2,-3.1799622E-2,-4.7280617E-2,-3.6318406E-2,-1.3518743E-3,-3.4928013E-2,-3.567138E-2,1.21480525E-1,1.1257112E-2,-3.5723325E-2,2.0236762E-2,-8.239987E-3,-2.2235254E-2,2.8695216E-2,-4.3834383E-3,6.366161E-2,-9.440965E-3,-4.473659E-2,2.438526E-4,-4.1979734E-2,3.0581394E-4,2.5815368E-2,7.920041E-2,2.418572E-2,-4.6168577E-2,5.0759832E-3,-3.2055963E-2,2.4101881E-2,2.169163E-2,4.4324625E-2],"categories":[],"categories_nodes":[],"categories_segments":[],"categories_sizes":[],"default_left":[0,0,0,0,0,0,0,0,0,0,0,0,0,0,0,0,0,0,0,0,0,0,0,0,0,0,0,0,0,0,0,0,0,0,0,0,0,0,0,0,0,0,0,0,0,0,0,0,0,0,0,0,0,0,0,0,0,0,0,0,0],"id":23,"left_children":[1,3,5,7,9,11,13,15,17,19,21,23,25,27,29,31,33,35,37,39,-1,41,43,45,47,49,51,53,55,57,59,-1,-1,-1,-1,-1,-1,-1,-1,-1,-1,-1,-1,-1,-1,-1,-1,-1,-1,-1,-1,-1,-1,-1,-1,-1,-1,-1,-1,-1,-1],"loss_changes":[2.5797912E4,3.5217656E3,1.7172212E3,9.09416E2,6.9140027E2,7.140823E2,8.437412E2,2.348711E2,6.010537E2,1.7599426E2,6.826699E2,3.0868094E2,5.80963E2,6.458394E2,4.4209766E2,4.639933E2,1.1782422E2,7.7284314E2,3.8907715E2,1.708678E2,0E0,6.5923663E2,5.355732E2,1.7656471E2,1.9634799E2,